#include "mfcc_multiclass_model_data.h"

const float g_mfcc_multiclass_weight[11466] = {
  -1.243958948e-03f, -1.319958013e-03f, -1.527548418e-03f, -1.813980867e-03f, -2.039215062e-03f, -2.096064156e-03f, -2.173142042e-03f, -2.253199928e-03f,
  -2.282183617e-03f, -2.322457265e-03f, -2.401932608e-03f, -2.377821831e-03f, -2.452328335e-03f, -2.452292945e-03f, -2.451604465e-03f, -2.432358218e-03f,
  -2.474389039e-03f, -2.478050301e-03f, -2.533365507e-03f, -2.523747738e-03f, -2.449879423e-03f, -2.537965775e-03f, -2.436176408e-03f, -2.603414468e-03f,
  -2.456573769e-03f, -2.526796190e-03f, -2.462737961e-03f, -2.548784716e-03f, -2.504471224e-03f, -2.543515759e-03f, -2.551249228e-03f, -2.520185430e-03f,
  -2.535769716e-03f, -2.595686121e-03f, -2.630310133e-03f, -2.738671144e-03f, -2.740782453e-03f, -2.789646154e-03f, -2.744414145e-03f, -2.761278069e-03f,
  -2.811380895e-03f, -2.819818677e-03f, -2.799902577e-03f, -2.881428460e-03f, -2.765416633e-03f, -2.888967749e-03f, -2.507911995e-03f, -2.482590964e-03f,
  -2.188933315e-03f, -1.296897302e-03f, -6.064431509e-04f, -3.173493897e-04f, -3.204503446e-04f, 1.783254120e-04f, 4.980993690e-04f, 6.223669625e-04f,
  9.094745037e-04f, 8.057894884e-04f, 1.068407902e-03f, 1.224840758e-03f, 1.003336045e-03f, 1.148531330e-03f, 7.954342873e-04f, 1.010163222e-03f,
  6.269555888e-04f, 9.156207088e-04f, 7.877178723e-04f, 1.009820960e-03f, 9.614033042e-04f, 8.069331525e-04f, 9.385520825e-04f, 7.350079250e-04f,
  8.134909440e-04f, 9.476597770e-04f, 1.457072096e-03f, 1.209577778e-03f, 1.622624928e-03f, 1.256280229e-03f, 1.711111050e-03f, 1.499163802e-03f,
  1.834921539e-03f, 1.582124154e-03f, 1.661696006e-03f, 1.409554388e-03f, 1.528452267e-03f, 1.437935163e-03f, 1.498318044e-03f, 1.253754483e-03f,
  1.342247357e-03f, 1.047580154e-03f, 1.355956076e-03f, 8.294508443e-04f, 1.290416927e-03f, 8.178232820e-04f, 1.103844028e-03f, 4.957701894e-04f,
  5.451626494e-04f, 2.316796163e-04f, 7.571544847e-04f, -5.846254062e-04f, -1.449411153e-03f, -1.438647043e-03f, -1.152754761e-03f, -9.577204473e-04f,
  -1.220210921e-03f, 4.640838015e-04f, -1.664550073e-04f, 1.555734896e-03f, -2.357782068e-04f, 8.042941918e-04f, -2.874888014e-04f, -1.098553475e-04f,
  -9.850212373e-04f, -1.230149181e-03f, -1.134957536e-03f, -1.501006423e-03f, -7.281525177e-04f, -1.531182788e-03f, -7.814630226e-05f, 1.499864302e-04f,
  6.679780199e-05f, 7.108294521e-04f, -1.318085124e-03f, 9.345584549e-04f, -1.434187754e-03f, -1.009854986e-05f, -1.421182533e-03f, -4.383455089e-04f,
  -1.430575503e-03f, 3.085987119e-04f, -5.155352410e-04f, 6.969404640e-04f, 3.232794988e-04f, 1.585377729e-03f, 8.122729196e-05f, 5.351336440e-04f,
  -2.277493768e-04f, 1.636428206e-04f, -3.627399856e-04f, 3.022569290e-04f, 3.377796093e-04f, 1.239496283e-03f, 1.186779235e-03f, 1.220280421e-03f,
  1.370323007e-03f, 1.589220483e-03f, 2.264349954e-03f, -7.376141846e-03f, -9.556133300e-03f, -1.062585134e-02f, -1.023268048e-02f, -1.159683242e-02f,
  -8.698966354e-03f, -1.104447525e-02f, -8.173996583e-03f, -1.133030932e-02f, -9.576877579e-03f, -1.119103935e-02f, -1.063519716e-02f, -1.052572019e-02f,
  -1.020019781e-02f, -8.412008174e-03f, -9.082721546e-03f, -9.683969431e-03f, -1.003233064e-02f, -9.859048761e-03f, -7.960252464e-03f, -1.186676603e-02f,
  -6.635111757e-03f, -1.220664382e-02f, -7.844646461e-03f, -1.048169285e-02f, -9.609179571e-03f, -1.025768090e-02f, -1.064045075e-02f, -9.165549651e-03f,
  -1.211358793e-02f, -8.050382137e-03f, -1.068816055e-02f, -9.250491858e-03f, -1.231991593e-02f, -9.497267194e-03f, -1.187653188e-02f, -9.201674722e-03f,
  -9.461752139e-03f, -8.537729271e-03f, -9.813960642e-03f, -9.205623530e-03f, -1.041362062e-02f, -8.624248207e-03f, -9.650324471e-03f, -8.389347233e-03f,
  -1.048660371e-02f, -6.023481023e-03f, -6.938179489e-03f, -5.502092186e-03f, 1.347872522e-02f, 1.583165303e-02f, 1.803499460e-02f, 1.993778162e-02f,
  1.910288446e-02f, 2.154483460e-02f, 2.067155950e-02f, 1.963817328e-02f, 1.881809719e-02f, 1.801869459e-02f, 1.619431004e-02f, 1.609973423e-02f,
  1.599449851e-02f, 1.919237152e-02f, 1.724810898e-02f, 1.991133951e-02f, 1.657732949e-02f, 1.816258766e-02f, 1.630465314e-02f, 1.592237130e-02f,
  1.619709842e-02f, 1.527196821e-02f, 1.428946201e-02f, 1.457641367e-02f, 1.324698143e-02f, 1.168484706e-02f, 1.464853715e-02f, 1.108280942e-02f,
  1.501932926e-02f, 1.143120788e-02f, 1.446243934e-02f, 1.213654689e-02f, 1.405144576e-02f, 1.250167191e-02f, 1.301965863e-02f, 1.169800665e-02f,
  1.351405028e-02f, 1.030186284e-02f, 1.565866172e-02f, 1.014189608e-02f, 1.700372249e-02f, 9.631237946e-03f, 1.540275663e-02f, 1.236286201e-02f,
  1.451746747e-02f, 1.360237133e-02f, 1.286399830e-02f, 1.356015727e-02f, 1.216148213e-02f, 1.902483031e-02f, 2.025575936e-02f, 2.213791572e-02f,
  1.512194797e-02f, 1.347797457e-02f, 5.835793563e-04f, 8.900887333e-04f, -1.436115825e-03f, -1.987603959e-03f, -4.001002293e-03f, -6.540808361e-03f,
  -1.110622892e-03f, -8.945917711e-03f, 3.443416441e-03f, -8.279379457e-03f, 4.395235330e-03f, -1.073081605e-02f, 9.469563374e-04f, -8.342449553e-03f,
  1.015610993e-03f, -7.792502642e-03f, -1.484945416e-03f, -5.845458247e-03f, -6.007856064e-05f, 5.513980519e-03f, -2.420708537e-03f, 1.876767352e-02f,
  1.073378604e-02f, 2.800936811e-02f, 1.493764762e-02f, 1.711003296e-02f, 1.217828877e-02f, 5.703647155e-03f, 3.498401027e-03f, -3.961301409e-03f,
  -7.762931753e-03f, -5.867218599e-03f, -4.387095571e-03f, 6.248055026e-03f, -5.052058026e-03f, 1.287782937e-02f, -2.944662003e-03f, 6.282287650e-03f,
  3.992567305e-03f, 1.050596032e-02f, 5.740325432e-03f, 1.527069137e-02f, 7.928726263e-03f, 1.240147185e-02f, -8.300890913e-04f, -2.975929994e-03f,
  -2.018275205e-03f, -2.644431079e-03f, 4.249828053e-04f, 7.358139846e-04f, 6.967270747e-03f, 1.726200222e-03f, 1.280608680e-02f, 8.677951060e-03f,
  3.723237431e-03f, 5.966967903e-03f, 2.952359617e-03f, 8.130880073e-03f, 2.438077237e-03f, 8.699879982e-03f, 6.702479906e-03f, 2.422070596e-03f,
  1.568251476e-02f, 6.275424268e-03f, 1.160360035e-02f, 3.134079088e-05f, 2.302277135e-03f, 3.125639167e-03f, 1.411463134e-03f, 1.458674017e-02f,
  5.114665255e-03f, 1.486156322e-02f, 1.435059775e-02f, 2.742898883e-03f, 1.434464846e-02f, -4.796992522e-03f, 9.920176119e-03f, 4.838865250e-03f,
  8.205775172e-03f, 1.191171235e-03f, 1.210166886e-02f, 4.021535628e-03f, 2.112145349e-02f, 5.344799254e-03f, 1.356231887e-02f, 2.677611308e-03f,
  1.801006868e-02f, 6.297810469e-03f, 1.538123749e-02f, 1.136762649e-02f, 6.792820990e-03f, 8.172037080e-03f, 1.115489379e-02f, 6.374713033e-03f,
  6.960945670e-03f, 1.013688929e-02f, 1.172190625e-02f, 1.080221683e-02f, 1.711521298e-02f, 9.246835485e-03f, 8.931279182e-03f, 1.225883793e-02f,
  3.840470221e-03f, 9.670312516e-03f, 8.420502767e-03f, 5.847372813e-04f, 8.661870845e-03f, -1.931295119e-04f, 4.848244600e-03f, -1.530252048e-03f,
  4.849386401e-03f, -5.934414919e-03f, 7.749984972e-03f, 1.487902191e-04f, 1.024189219e-02f, 3.944714554e-03f, 8.310499601e-03f, 6.419056095e-03f,
  5.572675262e-03f, 4.186214413e-03f, 4.044909030e-03f, 4.870878067e-03f, 4.762326833e-03f, -2.751330612e-04f, 7.289008237e-03f, 4.561025649e-03f,
  6.131208502e-03f, 5.475703161e-03f, 6.529395934e-03f, 5.384576973e-03f, 1.293641143e-02f, 7.979577407e-03f, 1.424621418e-02f, 1.331481989e-02f,
  1.181878243e-02f, 1.209557243e-02f, 1.275390759e-02f, 1.385455206e-02f, 1.057967357e-02f, 1.255897991e-02f, 1.016242802e-02f, 1.105018985e-02f,
  1.828608848e-02f, 1.389399637e-02f, 8.328667842e-03f, 1.844349131e-02f, 1.056562178e-02f, 4.782311153e-03f, 6.818613037e-03f, -4.291791935e-03f,
  9.947163984e-03f, -5.332300439e-03f, 6.482221652e-03f, -4.018719774e-03f, 2.226423239e-03f, -5.370472558e-03f, 1.385595463e-02f, -9.661182412e-04f,
  4.078647122e-03f, -5.486600567e-04f, 5.512051750e-03f, 1.256822841e-03f, 1.278004795e-02f, 5.151204299e-03f, 1.579168998e-02f, 1.717062481e-02f,
  1.029469445e-02f, 8.941668086e-03f, 7.177211810e-03f, -1.140206470e-03f, -3.055374138e-03f, 2.936950885e-03f, -8.845089935e-03f, -9.168903343e-04f,
  -1.046831813e-02f, -8.797138929e-03f, -8.243583143e-03f, -5.255911965e-04f, -7.871708833e-03f, 6.471511908e-03f, -2.621549182e-03f, 3.483210923e-03f,
  -3.335473128e-03f, -1.477073238e-04f, -7.357745431e-03f, 1.428101305e-02f, -2.045745729e-03f, 1.016406063e-02f, -4.799013550e-04f, 5.828600377e-03f,
  7.620372809e-03f, -1.113390271e-02f, -2.150927298e-02f, -2.005795017e-02f, -2.100293711e-02f, -2.232353576e-02f, -2.840303257e-02f, -2.411503159e-02f,
  -3.196202219e-02f, -2.993104421e-02f, -3.089381568e-02f, -2.537498437e-02f, -3.421149775e-02f, -2.110674046e-02f, -3.360236436e-02f, -2.409264259e-02f,
  -3.692786023e-02f, -2.437797934e-02f, -3.293514997e-02f, -1.870381832e-02f, -2.684952877e-02f, -1.449724659e-02f, -2.764369361e-02f, -2.254654281e-02f,
  -2.903530560e-02f, -2.440330386e-02f, -2.559050918e-02f, -2.846531570e-02f, -3.174464032e-02f, -2.697479911e-02f, -3.325485811e-02f, -2.756185457e-02f,
  -2.213273756e-02f, -2.306273952e-02f, -2.453631349e-02f, -2.405487001e-02f, -2.567488514e-02f, -2.884346060e-02f, -2.798937820e-02f, -3.075364046e-02f,
  -3.137715906e-02f, -3.526213393e-02f, -3.181892633e-02f, -3.376711160e-02f, -3.036158346e-02f, -3.565251082e-02f, -3.437202796e-02f, -3.030308522e-02f,
  -2.957622148e-02f, -2.381186746e-02f, 2.153396793e-02f, 2.559478581e-02f, 3.455740586e-02f, 2.113860473e-02f, 3.184159100e-02f, 3.671719879e-02f,
  2.080522664e-02f, 3.061063960e-02f, 1.768581010e-02f, 2.524784580e-02f, 2.267079987e-02f, 2.869783156e-02f, 4.036728293e-02f, 2.812951058e-02f,
  3.598194197e-02f, 2.665897645e-02f, 1.885046251e-02f, 1.365268324e-02f, 2.351606824e-02f, 8.976968937e-03f, 2.096157148e-02f, 1.199058816e-02f,
  8.625422604e-03f, 2.077630907e-02f, 3.839988960e-03f, 2.825701423e-02f, 1.354661305e-02f, 3.051842190e-02f, 2.304693684e-02f, 3.180527315e-02f,
  3.101347201e-02f, 2.377836592e-02f, 3.517787531e-02f, 4.252655804e-02f, 3.478104249e-02f, 3.294315189e-02f, 3.216055781e-02f, 2.849154733e-02f,
  2.560758591e-02f, 2.222162858e-02f, 1.887857728e-02f, 2.958334424e-02f, 2.591605484e-02f, 2.711935155e-02f, 3.050932288e-02f, 2.922453731e-02f,
  2.985875495e-02f, 3.244578093e-02f, 2.589454874e-02f, -6.234980002e-02f, -4.874921218e-02f, -5.399378017e-02f, -6.224074215e-02f, -3.979753330e-02f,
  -4.613608494e-02f, -5.265317112e-02f, -3.623049706e-02f, -4.081057012e-02f, -4.135401547e-02f, -3.948275000e-02f, -2.495822869e-02f, -4.260512814e-02f,
  -2.224715240e-02f, -4.143096879e-02f, -2.518334612e-02f, -4.115225747e-02f, -4.810091853e-02f, -3.956843168e-02f, -4.096435383e-02f, -3.595139459e-02f,
  -4.131436720e-02f, -3.425972164e-02f, -3.425326943e-02f, -2.208653279e-02f, -2.841578051e-02f, -2.459068410e-02f, -3.802576289e-02f, -4.056786373e-02f,
  -4.019255191e-02f, -4.790896177e-02f, -4.662995040e-02f, -4.582067952e-02f, -2.746388875e-02f, -6.322344393e-02f, -2.121298946e-02f, -5.538443476e-02f,
  -3.797667474e-02f, -2.982885949e-02f, -5.028557405e-02f, -3.322716430e-02f, -4.615536332e-02f, -3.931972757e-02f, -3.136043251e-02f, -1.782652177e-02f,
  -2.401227318e-02f, -2.055522241e-02f, -2.144867741e-02f, -2.385204472e-02f, 6.543558091e-02f, 4.875476286e-02f, 5.069368705e-02f, 4.106860235e-02f,
  3.496278077e-02f, 4.299714044e-02f, 3.588598222e-02f, 1.677816361e-02f, 4.661708698e-02f, 2.457385510e-02f, 5.296959355e-02f, 3.781837225e-02f,
  3.624648601e-02f, 4.333686829e-02f, 1.767707244e-02f, 6.908968557e-03f, 3.668626025e-02f, 5.836321972e-03f, 4.303851351e-02f, 2.487187646e-02f,
  3.346354887e-02f, 3.392025828e-02f, 3.161763772e-02f, 4.041633010e-02f, 3.956554458e-02f, 3.822886199e-02f, 6.883265823e-02f, 3.415462002e-02f,
  6.071704999e-02f, 4.028730839e-02f, 3.472095728e-02f, 4.097383842e-02f, 9.182356298e-03f, 4.530782625e-02f, 2.231865935e-02f, 2.688099258e-02f,
  2.965023182e-02f, 2.948310226e-02f, 4.010377452e-02f, 2.193439007e-02f, 4.584361613e-02f, 3.461245075e-02f, 3.622769564e-02f, 4.091690108e-02f,
  2.910763025e-02f, 6.178690866e-02f, 1.778450981e-02f, 3.879363090e-02f, 3.778071702e-02f, -4.725499079e-03f, -7.582367864e-03f, -1.245646179e-02f,
  -1.348124444e-02f, -1.479609311e-02f, -3.277093917e-02f, -4.329773784e-02f, -3.005770966e-02f, -1.746290736e-02f, -3.295419738e-02f, -1.363400929e-02f,
  -1.228708774e-02f, -2.126913145e-02f, 2.339083236e-03f, 7.950816303e-03f, -6.076261401e-03f, -1.020603441e-02f, -1.558457129e-02f, -1.163774356e-02f,
  2.198947221e-02f, -3.874082351e-03f, 4.822709598e-03f, -1.699930802e-02f, -5.344479810e-03f, 2.058492973e-02f, -1.000510878e-03f, -5.173576064e-03f,
  -9.128428996e-03f, 8.414126933e-04f, -1.055647433e-02f, 6.761482917e-03f, 3.556815209e-03f, -2.086736821e-02f, -2.801004238e-02f, -3.288009018e-02f,
  -2.762394026e-02f, -1.393653639e-02f, -3.590931650e-03f, 7.996509783e-03f, -1.647763327e-02f, -1.648943126e-02f, 2.848984208e-03f, -1.677616686e-02f,
  9.199860506e-03f, 2.920887200e-03f, 1.096074283e-02f, 1.058815513e-02f, 8.257138543e-03f, 1.389456354e-02f, 4.638125747e-02f, 3.796529397e-02f,
  1.117639709e-02f, 1.580450684e-02f, 3.734287992e-02f, 4.667181149e-02f, 4.735929146e-02f, 2.086808346e-02f, 1.749354787e-02f, 4.628536105e-02f,
  -7.410920691e-03f, -7.375384215e-03f, -2.294093370e-02f, -1.671735197e-02f, -1.860662363e-02f, -1.128076576e-02f, 1.781959459e-02f, 1.119150780e-02f,
  1.864817552e-02f, -2.254785597e-02f, -2.869745484e-03f, -8.335207589e-03f, -1.337891631e-02f, 2.403465100e-02f, 7.088092715e-02f, 2.858800068e-02f,
  1.774506830e-02f, 5.558654666e-03f, 9.464079514e-03f, 2.574253827e-02f, 1.263401750e-02f, 9.659418836e-03f, -1.759546064e-02f, -2.020115405e-02f,
  -1.427340228e-02f, 3.039753996e-03f, -2.946623368e-03f, -2.008336037e-02f, -1.640213467e-02f, -2.318481542e-02f, 1.822138729e-04f, -2.385869995e-02f,
  -6.342506502e-03f, -8.114628727e-04f, -1.211317442e-02f, -1.061578281e-02f, -1.551257819e-02f, -7.447177079e-03f, -1.714296453e-02f, -4.168269411e-02f,
  -4.775455967e-02f, -1.906318963e-02f, 6.353204139e-03f, 1.418449357e-02f, -3.386889119e-03f, 6.543543935e-02f, 4.910974205e-02f, 4.973469675e-02f,
  -3.407577286e-03f, -3.400859609e-02f, -2.257094253e-03f, -4.161211103e-02f, -3.212356940e-02f, -5.086728930e-02f, -6.903085392e-03f, -1.186976209e-02f,
  1.933569461e-02f, -1.236482989e-03f, 2.925623767e-02f, 7.637549937e-02f, 6.729313172e-03f, 2.491546422e-02f, -6.304121017e-02f, 1.073701307e-02f,
  -5.262441933e-03f, -4.395981878e-02f, 1.333534368e-03f, -1.961415261e-02f, -1.422665780e-03f, 3.403965011e-02f, 4.292959720e-02f, 1.725231856e-02f,
  3.791696206e-02f, 4.086462781e-02f, -1.126259379e-02f, -4.886858910e-02f, -1.390074100e-02f, -1.711850800e-02f, -6.853045430e-03f, 6.632829085e-03f,
  3.256698325e-02f, 4.239185899e-02f, 3.950669989e-02f, -1.796071738e-04f, 4.691264126e-03f, 7.581295446e-03f, 1.921113767e-02f, 2.085763402e-02f,
  -3.295616433e-02f, -3.839459643e-02f, -7.241887506e-03f, -9.601428173e-03f, 2.441499196e-02f, 9.636770934e-03f, 9.571643546e-03f, -4.606472794e-03f,
  -2.469013631e-02f, 2.979038050e-03f, -1.887964644e-02f, 1.207673177e-02f, 6.824976299e-03f, 3.855396435e-02f, 2.041511610e-02f, -2.379320562e-02f,
  -1.688747853e-02f, -2.995312447e-03f, 3.597767651e-02f, -3.405184299e-02f, 2.452649921e-02f, -7.465031929e-03f, -2.238229476e-02f, 3.228156269e-02f,
  -3.116315790e-02f, 2.482297597e-03f, -1.787891984e-02f, 1.977052912e-02f, -2.877806872e-02f, 2.057271637e-02f, 2.629159763e-02f, -2.157793753e-02f,
  -2.828988619e-02f, -4.638032056e-03f, 7.694737520e-03f, 5.237427540e-03f, 4.310511425e-02f, 1.214080304e-02f, -6.556699984e-03f, -1.146186236e-02f,
  -1.075112168e-02f, 9.744060226e-03f, 1.228142809e-02f, 3.946771380e-03f, -1.224896498e-02f, 3.060545959e-02f, 4.020895809e-02f, 5.819882732e-03f,
  2.160590142e-02f, 3.027185239e-02f, 4.284686595e-02f, 3.533092141e-02f, 6.415383890e-03f, 2.384508587e-02f, 3.217418492e-02f, -3.493262082e-02f,
  -3.902658820e-02f, -2.776560001e-02f, -4.148934036e-02f, -3.201845288e-02f, -5.381696858e-03f, 4.816920310e-02f, 2.288366482e-02f, 1.878305525e-02f,
  -9.958700277e-03f, -3.414133191e-02f, -7.203683723e-03f, -3.769206256e-02f, -2.118300035e-04f, -9.650672786e-03f, -3.575551510e-02f, -1.454377640e-02f,
  -1.606710628e-02f, -4.968453571e-02f, 2.537713572e-02f, -1.139138080e-02f, 2.192333341e-03f, 6.603014655e-03f, -6.112040021e-03f, 1.465370692e-02f,
  -1.010018028e-02f, 2.679303056e-03f, -1.666012779e-02f, -1.197272539e-02f, 1.133700646e-02f, -2.579165436e-02f, 3.441345692e-02f, -2.528412733e-03f,
  2.577376366e-02f, -7.513426710e-03f, -2.946554869e-02f, 4.655542970e-02f, -1.471932605e-02f, 2.429861575e-02f, -1.475404389e-02f, 3.592193825e-03f,
  -5.662803072e-03f, -1.854227856e-02f, 2.430973342e-03f, 7.308949251e-03f, -2.816648781e-02f, -4.249676317e-02f, -7.067251205e-02f, -6.335631013e-02f,
  -1.023400016e-02f, -1.427857857e-02f, -1.304893475e-02f, -2.282902785e-02f, 1.437027846e-02f, -1.182877272e-02f, 2.310877852e-02f, 3.188069444e-03f,
  4.440715536e-03f, -1.214724127e-02f, -1.724779978e-02f, 1.192166843e-02f, 3.884995822e-04f, 2.944535576e-03f, -1.271597762e-02f, 9.639898315e-03f,
  7.232187781e-03f, 5.646669120e-02f, -1.187322941e-02f, 6.640361995e-02f, 6.709343940e-02f, 4.788788781e-02f, 2.072566189e-02f, -5.731125176e-02f,
  -1.403522026e-02f, -5.764692277e-02f, -4.318589717e-02f, -4.921953008e-02f, -5.718493834e-02f, -9.834825061e-03f, 1.709252037e-02f, 6.049015373e-02f,
  -3.306919709e-03f, 3.221309558e-02f, 1.057342067e-02f, -3.210281208e-02f, 3.498848528e-02f, 2.145402506e-02f, 8.616031148e-03f, 2.343940921e-02f,
  1.146777254e-02f, -7.653193083e-03f, 2.513713017e-02f, -9.325712919e-03f, -4.197941627e-03f, 1.749631716e-03f, 9.316220880e-03f, 1.393325254e-02f,
  2.842670679e-02f, 4.107750021e-03f, 2.611392736e-02f, 3.074096888e-02f, -3.932986408e-02f, -1.135445200e-02f, -3.503834596e-03f, 9.626649320e-03f,
  -2.334337914e-03f, 2.192097250e-03f, 1.890332252e-02f, -2.790142782e-02f, 3.933878615e-02f, 1.689088717e-02f, -1.752714068e-02f, -2.755279653e-02f,
  -4.092225805e-02f, 1.353608537e-02f, -3.776369849e-03f, 5.045966804e-02f, 1.606288180e-02f, 1.328684273e-03f, 4.054399207e-02f, -5.385373160e-02f,
  -2.163737227e-04f, -3.290235251e-02f, -2.043268085e-02f, 4.259307310e-02f, -7.565886714e-03f, -1.615728624e-02f, 1.746995561e-02f, 1.293251943e-02f,
  4.032288492e-02f, 5.566563923e-03f, -3.450424597e-02f, -1.178852376e-02f, 1.949054748e-02f, 1.602126472e-02f, -1.161106210e-02f, 2.250087075e-02f,
  -3.197229281e-02f, -1.095976681e-02f, 1.844475977e-02f, 1.399686933e-02f, 2.811960876e-03f, 1.852664538e-02f, 2.356866561e-02f, 2.183457138e-03f,
  2.734353021e-02f, -9.169727564e-03f, -4.738462344e-02f, 1.845677197e-02f, -2.959526516e-02f, -1.545391232e-02f, 2.614214644e-02f, -5.288722739e-02f,
  1.922473661e-03f, -4.386917688e-03f, -2.308579721e-02f, -7.761692163e-03f, -1.264411840e-04f, -2.536385506e-02f, 1.670619287e-02f, 3.557961434e-02f,
  1.413898263e-02f, 2.225206979e-02f, -1.001498941e-02f, 1.472556870e-02f, -1.662975736e-02f, -1.299570035e-02f, -9.194480255e-03f, 4.050089512e-03f,
  4.007846117e-03f, -2.976660058e-02f, 1.471731812e-02f, 2.849314548e-02f, -5.892697722e-03f, 4.988271743e-03f, 2.226903103e-03f, -4.707313783e-04f,
  3.710551560e-02f, 1.532158256e-02f, 7.624976337e-03f, 3.089804575e-02f, -1.455695648e-02f, -7.354054600e-03f, 7.134260610e-03f, 1.019335911e-02f,
  -1.260427386e-02f, -5.068564322e-03f, -1.839031931e-03f, -5.636334885e-03f, 7.266744971e-03f, -1.978438161e-02f, -4.153685644e-02f, 1.892983727e-02f,
  8.667235263e-03f, -5.824844912e-02f, -1.618506201e-02f, -4.012769088e-02f, 1.404353976e-02f, -4.643446300e-03f, -1.558169443e-02f, 5.672092084e-03f,
  -1.893762499e-02f, -6.334007718e-03f, 5.203346163e-02f, 1.982483827e-02f, -4.390101507e-02f, 1.847742125e-03f, 6.696264725e-03f, 8.167254739e-03f,
  3.258999437e-02f, 1.735119894e-02f, 1.318826247e-02f, 5.529565737e-02f, -2.485033125e-02f, -3.751905262e-02f, -1.380265970e-02f, -4.499546066e-02f,
  -4.568369314e-02f, 1.794253476e-02f, -2.545548789e-02f, -1.668607257e-02f, -6.940262858e-03f, -3.573551401e-02f, 9.969254956e-03f, 3.800975159e-02f,
  1.594350790e-03f, 3.178149462e-02f, 2.354822122e-02f, -1.341162156e-02f, -3.120703856e-03f, -1.644939929e-02f, -1.780041493e-02f, 6.563921273e-02f,
  2.380966209e-02f, -1.860338077e-02f, 6.608210504e-03f, -1.767869666e-02f, 3.345911577e-02f, 8.148767054e-03f, -6.679870188e-02f, -5.338509008e-02f,
  -3.091216553e-03f, -1.879664138e-02f, -5.415699631e-02f, -1.411496382e-02f, -2.450677752e-02f, -4.225421697e-02f, 6.446152460e-03f, 3.255024925e-02f,
  -2.397434227e-02f, 3.159186989e-02f, 4.875963554e-03f, -2.072147839e-02f, -2.342168428e-02f, -2.228358528e-03f, 2.842701599e-02f, 4.021279886e-02f,
  4.478062689e-02f, 3.121738695e-02f, -4.898712039e-03f, -5.931215361e-02f, -1.081532426e-02f, -1.204528194e-02f, 2.303637564e-02f, -3.030574508e-02f,
  -4.250354320e-02f, 9.349565022e-03f, -1.013250183e-02f, -2.511946950e-03f, 7.985572517e-02f, 3.268254548e-02f, -1.848624274e-02f, -7.133947685e-03f,
  -7.607291918e-03f, -3.398366645e-02f, -1.677629724e-02f, -1.499474794e-02f, -2.406970039e-02f, -3.279247880e-02f, -3.417825093e-03f, 1.218700595e-02f,
  1.023656409e-02f, -1.303764340e-02f, -2.446228452e-02f, 4.061542824e-02f, 3.633030877e-02f, 4.414561391e-02f, 4.039147496e-02f, 1.173511986e-02f,
  3.531423211e-02f, -1.183595043e-02f, -5.431783851e-03f, 4.454571754e-02f, -3.210218996e-02f, -1.682856306e-02f, -8.331546560e-03f, -1.536981855e-02f,
  1.417666208e-02f, 1.028482895e-02f, 4.876121506e-02f, -1.745206420e-03f, -1.151157636e-02f, -3.648507642e-03f, -4.867548123e-02f, -3.752811998e-02f,
  1.384015940e-02f, -1.311868057e-02f, -7.915639319e-03f, 8.984188549e-03f, -3.476943448e-02f, 2.499569766e-02f, -1.379213855e-02f, 2.092651092e-02f,
  2.779321373e-02f, 7.252261508e-03f, 2.711935341e-02f, 2.791266888e-03f, 2.186334878e-02f, -2.133452334e-02f, 1.185009349e-02f, 5.349180847e-02f,
  -2.826603013e-04f, -2.686644532e-02f, -8.225604892e-03f, -1.356194541e-02f, -1.669205725e-02f, -1.765565760e-02f, -2.010666579e-02f, 2.104687318e-02f,
  1.965832524e-02f, -7.671596017e-03f, 1.170554664e-02f, 6.076719146e-03f, -1.921636052e-03f, 7.054289337e-03f, -1.168760657e-02f, -1.828347147e-02f,
  2.535438165e-02f, 1.493344828e-02f, -2.892891504e-02f, 2.420114540e-02f, 3.151645511e-02f, -2.909774147e-02f, 2.109461464e-02f, 2.724610455e-02f,
  -1.161071751e-02f, 3.957109060e-03f, 3.620949760e-02f, -8.586311713e-03f, 6.866841111e-03f, 3.240135964e-03f, -6.702215876e-03f, 4.283979652e-04f,
  -5.046194419e-02f, 3.971040715e-03f, 1.353220455e-02f, 8.620682172e-03f, -3.529909300e-04f, 4.412887618e-03f, 1.640634052e-02f, 2.692640573e-02f,
  1.217353810e-02f, -6.045867223e-03f, -2.061193250e-02f, -3.488983586e-02f, -4.380835220e-03f, -1.505145989e-02f, -1.445838623e-02f, 3.196871607e-03f,
  4.271527007e-02f, -3.788773343e-02f, 1.368880365e-02f, 1.677554473e-02f, -3.708570078e-02f, 5.688663200e-02f, -2.726151235e-02f, -8.302548900e-03f,
  8.602739312e-03f, -1.345818955e-02f, 3.441860154e-02f, 4.766097665e-02f, 1.579857059e-02f, -5.714691244e-03f, 6.564508192e-03f, -4.828822333e-03f,
  -4.007571843e-03f, -3.080758266e-02f, -2.500635013e-02f, -1.316876151e-02f, -2.859063819e-02f, 5.626741797e-03f, 2.246841323e-03f, -5.377946049e-02f,
  2.155693062e-02f, 1.569400355e-02f, 1.324736606e-02f, 2.807411365e-02f, -3.492615744e-02f, 1.068210602e-02f, -3.902763501e-02f, -7.508192956e-02f,
  4.137795791e-02f, -2.261656104e-03f, 1.316794008e-02f, 3.985594586e-02f, -2.010673843e-02f, 1.907994784e-02f, -4.530937877e-03f, 1.208208036e-02f,
  1.764397882e-02f, -3.263676073e-03f, 6.347200274e-02f, -8.501152508e-03f, -1.998887584e-02f, 1.295157243e-02f, -5.395003036e-02f, 2.399548888e-03f,
  -5.445566773e-02f, 7.263225503e-03f, 2.828898281e-02f, -3.890710324e-02f, 1.546458900e-02f, 6.780569442e-03f, 2.146707289e-02f, -1.602804288e-02f,
  1.282766648e-02f, 2.613211051e-02f, -2.097311616e-02f, 1.250260882e-02f, -1.548668090e-02f, 4.354817420e-02f, -2.343402803e-02f, -4.809300974e-02f,
  3.830615804e-02f, -3.721925430e-03f, -2.082908526e-02f, -1.371469069e-02f, -5.647078156e-03f, 6.868123077e-03f, 1.813852787e-02f, 1.175158098e-02f,
  4.200496711e-03f, 1.705084555e-02f, -1.595469541e-03f, 2.756977221e-03f, 1.334069110e-02f, -5.905691534e-03f, 9.880201891e-03f, 1.936423592e-02f,
  -5.821866915e-03f, -1.239228249e-02f, -7.138962392e-03f, -7.601507823e-04f, 2.530865930e-02f, 5.293583963e-03f, -1.158688031e-02f, -8.919529617e-03f,
  -6.779427640e-03f, 2.567908727e-02f, 3.004744416e-03f, -1.736045629e-02f, -5.688142031e-03f, 4.098327365e-03f, -7.990114973e-04f, 3.923073411e-03f,
  9.887351654e-03f, -1.861321367e-02f, -2.126970328e-02f, -7.459618617e-03f, -1.653721090e-03f, 1.243078709e-02f, 1.555657201e-02f, 1.460912451e-02f,
  -8.746047504e-03f, -1.648166031e-02f, 1.279159635e-02f, -7.210940385e-05f, 4.357329570e-03f, 1.131725218e-02f, 1.600073278e-02f, 1.785432920e-02f,
  1.430670964e-03f, -5.802722182e-03f, -6.956712343e-03f, 3.626889735e-02f, -1.744714938e-02f, -1.821919531e-02f, 1.527723856e-02f, -3.680869238e-03f,
  -2.091042697e-02f, -1.860088296e-02f, -1.973606087e-02f, 1.696777903e-02f, -1.672246307e-02f, -3.633769602e-02f, -1.110002678e-02f, -5.967995152e-03f,
  2.565231407e-03f, 3.989969380e-03f, 2.469496056e-02f, 1.525657717e-02f, -5.304516526e-05f, -2.255429886e-02f, -1.481957268e-02f, 9.830676951e-03f,
  -7.068225183e-03f, 2.177017555e-02f, 5.782545358e-02f, 3.325596685e-03f, -3.440216929e-02f, -1.492559258e-02f, -5.562758539e-03f, 1.331820805e-02f,
  2.027603099e-03f, -1.162244193e-02f, -2.045309544e-02f, -2.022839896e-02f, 2.197633497e-03f, 1.550841238e-02f, 7.790369913e-03f, -1.545593515e-02f,
  -9.123530239e-03f, -2.595844911e-03f, 1.129394956e-02f, -2.324539673e-04f, -4.400996957e-03f, 1.595090516e-02f, -7.100206800e-03f, -1.254059654e-02f,
  -1.309303753e-02f, 7.795178681e-04f, 5.375213921e-03f, -8.985294029e-03f, -5.418004096e-02f, 1.037888229e-02f, 4.660403728e-02f, 2.721426450e-02f,
  -8.044050075e-03f, 2.672893554e-02f, 3.543027118e-02f, -1.028410625e-02f, -3.519656137e-02f, -5.657907948e-02f, 8.008685545e-04f, -5.424305331e-03f,
  -2.014298737e-02f, -6.267946213e-03f, 1.734668948e-02f, 2.650486678e-02f, 1.784774102e-02f, 7.237495389e-03f, 6.792590953e-03f, 5.254653096e-02f,
  -1.533007249e-02f, -3.456720337e-02f, -4.733565822e-02f, -9.722973220e-03f, 3.912888840e-02f, -3.684963658e-02f, 4.450573586e-03f, 1.613105275e-02f,
  -1.863798709e-03f, 3.621260449e-02f, 2.961275540e-02f, -1.142408326e-02f, -2.666706918e-03f, 1.610394195e-02f, -3.325550258e-02f, -6.060818210e-02f,
  -1.738302060e-03f, 2.127072774e-02f, 4.661756568e-03f, 1.628778689e-02f, 2.642489411e-02f, 2.489633858e-02f, 4.613804165e-03f, -2.708980814e-02f,
  -1.686322130e-02f, 7.752440870e-03f, 1.333985757e-02f, 6.362151820e-03f, -1.306151599e-02f, -3.221395612e-02f, 1.527482551e-02f, 2.231025882e-02f,
  2.216726169e-02f, 1.391689852e-02f, -1.303289179e-02f, -9.635232389e-03f, -2.326138690e-02f, 5.103514530e-03f, 4.023863468e-03f, 6.135355681e-03f,
  1.730699837e-02f, 1.766528003e-02f, 9.053840302e-03f, -4.209261760e-02f, -2.503022738e-02f, 1.378819626e-02f, 3.573160991e-02f, -2.075226977e-02f,
  -7.291227113e-03f, 1.844690554e-02f, -3.134801239e-02f, 2.699759044e-02f, -5.640477873e-03f, -2.034396678e-02f, 8.924446069e-03f, 1.178664621e-02f,
  -7.259906735e-03f, 4.935190082e-04f, 3.721559793e-02f, -2.821954712e-02f, -3.685149178e-02f, 1.148421038e-02f, 2.433310077e-02f, 6.666727364e-03f,
  2.381788194e-02f, 4.737441894e-03f, -3.388467059e-02f, -1.586755365e-02f, -2.912184689e-03f, 1.436303928e-02f, 1.566917636e-02f, -3.865700448e-03f,
  -1.671599969e-02f, 2.270725742e-02f, 4.188876599e-02f, -1.755101606e-02f, -1.985344663e-02f, 2.795985341e-02f, 5.052602664e-02f, 9.157828987e-03f,
  -3.057266958e-02f, -1.496998500e-02f, 1.278177276e-02f, -4.102487117e-02f, -4.898401350e-02f, 5.151046906e-03f, -1.761675696e-03f, -2.203396289e-03f,
  2.485390753e-02f, 5.564571545e-02f, 1.943854243e-02f, -1.999266073e-02f, -2.254257351e-02f, -3.621109575e-02f, 1.882760786e-03f, -2.475569723e-03f,
  4.862762988e-03f, 1.913710311e-02f, -2.440671809e-02f, -3.311021253e-03f, 1.349591371e-02f, -2.403479442e-02f, 2.863408625e-02f, 2.617242001e-02f,
  -1.588637009e-02f, 1.239983644e-02f, -5.616504233e-03f, 5.726641044e-03f, -2.672297414e-03f, -8.233319968e-03f, -4.515315406e-03f, -1.010345947e-02f,
  1.924963854e-02f, -9.360848926e-03f, 1.608832181e-02f, 1.599756442e-02f, -5.593442824e-03f, -3.408676013e-03f, -3.756427765e-02f, 3.705481812e-02f,
  1.053832844e-02f, -1.281248778e-02f, -4.149247427e-03f, -1.134227403e-02f, 6.133980118e-03f, -1.522759069e-02f, -2.206980437e-02f, 1.171984058e-02f,
  -2.268522792e-02f, -3.547497839e-02f, -2.664007060e-02f, -8.600836620e-03f, 4.354973510e-02f, 3.311123326e-02f, -1.810765942e-03f, -5.668750033e-03f,
  1.862008683e-02f, 7.473499514e-03f, 6.006893702e-03f, 1.018463913e-02f, -1.260729600e-02f, -1.041575987e-02f, -1.474984083e-02f, 1.633842103e-02f,
  1.193307992e-02f, -6.032905541e-03f, -8.949743584e-03f, 4.599510692e-03f, 1.350055821e-02f, 3.203299269e-02f, -1.287854742e-02f, 5.936405156e-03f,
  5.357930064e-02f, -1.198672876e-02f, -3.141077980e-02f, -7.116919756e-02f, -2.361695282e-02f, 1.470787392e-04f, -1.971682534e-02f, 6.007563323e-03f,
  -9.206435643e-03f, 2.670056745e-02f, 5.067342892e-02f, 4.784715548e-02f, -1.384116430e-02f, -1.899253763e-02f, 9.455767460e-03f, -4.332700744e-02f,
  1.669060066e-02f, 3.676372394e-02f, -1.754626818e-02f, 3.596081166e-03f, 3.177184844e-03f, -2.193880081e-02f, 7.964801043e-03f, 6.743312627e-02f,
  9.175129235e-03f, 7.563999854e-03f, 9.532285854e-03f, 7.969251834e-03f, 1.107418723e-02f, -7.136293221e-03f, -1.427036128e-03f, 1.791401207e-02f,
  -4.428813979e-02f, -2.871727198e-02f, 2.472601272e-02f, 1.416125894e-02f, 8.107894100e-04f, -5.104318727e-03f, 1.442531217e-02f, -2.038130537e-02f,
  1.381642092e-02f, 3.041788563e-02f, -3.852107748e-02f, -3.030221350e-02f, -1.568928175e-02f, 2.776370756e-02f, 2.533964813e-02f, 2.482650056e-02f,
  1.345688384e-02f, -3.316753730e-02f, 1.659974456e-02f, -3.732084855e-02f, -2.790517919e-02f, 1.393187419e-02f, -1.376532204e-02f, 5.129168928e-02f,
  8.801526390e-03f, -3.968976811e-02f, 1.705549285e-02f, 1.981252618e-02f, 1.560143661e-02f, -4.951455165e-03f, -5.088130012e-02f, -1.183788572e-02f,
  3.667576611e-02f, 1.882891171e-02f, -2.110584080e-02f, 4.961314145e-03f, -1.612091064e-02f, -2.297409438e-02f, 3.533371910e-02f, 1.737308875e-02f,
  -1.349937078e-02f, 3.513729945e-02f, 1.554270554e-02f, -1.152563747e-02f, 1.179600717e-03f, -7.448654622e-03f, -5.041832104e-02f, 1.867235079e-02f,
  1.206322480e-02f, -2.281038463e-02f, 3.770156950e-02f, -2.465219237e-02f, -1.622541435e-02f, 3.254278749e-02f, -1.673435606e-02f, -2.253299346e-03f,
  1.546897460e-02f, -1.183453202e-02f, 1.148920134e-02f, 4.115387425e-02f, -1.599289128e-03f, -9.315906093e-03f, -1.625289582e-02f, -4.941015039e-03f,
  -4.375425633e-03f, -1.871926337e-02f, 5.120382644e-03f, 1.147002727e-02f, 9.046708234e-03f, -2.281049266e-02f, 7.181980181e-03f, 3.924422339e-02f,
  -1.391324494e-02f, -1.583604142e-02f, 5.497353151e-03f, -3.658412257e-03f, 2.383318916e-02f, 1.071826462e-02f, -1.973455772e-02f, 1.026073098e-02f,
  -1.513438206e-02f, -2.602123655e-02f, 1.464954112e-02f, 1.178262662e-02f, -1.341109816e-02f, -1.035855431e-02f, 7.028459106e-03f, -5.960025010e-04f,
  6.196843926e-03f, 2.704518288e-02f, -4.956280068e-02f, 2.679107711e-02f, 3.479885682e-02f, -5.311119184e-02f, -1.692188159e-02f, 1.397015434e-02f,
  2.073792182e-02f, 2.451217361e-02f, -2.018962055e-02f, 6.992732640e-03f, -2.118805423e-03f, -8.197425865e-03f, 4.854689538e-02f, 1.787817851e-02f,
  -6.527461112e-02f, -1.225172449e-02f, 3.422864154e-02f, 4.281298257e-03f, 1.745609380e-02f, 6.404242013e-03f, -1.311425678e-02f, 2.590958960e-02f,
  -2.595979907e-02f, -6.316032261e-02f, 7.840294391e-03f, -4.924314562e-03f, -2.218657918e-02f, 4.274828732e-02f, 1.366532035e-02f, -2.349159494e-02f,
  1.271555107e-02f, -1.267739199e-02f, 1.156240702e-02f, 5.007554218e-02f, -5.685952492e-03f, -4.315769766e-03f, 1.492664590e-02f, -3.073615208e-02f,
  -1.791754551e-02f, -1.922481810e-03f, -9.968161583e-03f, 5.590815470e-02f, 2.829740755e-02f, -5.705204234e-02f, -1.123815589e-02f, -1.237891556e-04f,
  1.909968071e-02f, 1.794052683e-02f, -5.542843044e-02f, 1.354690827e-02f, 4.220391437e-02f, 2.472963743e-02f, -3.402038664e-02f, 5.546275061e-03f,
  2.288226597e-02f, -1.933888532e-02f, 2.075697668e-02f, 5.046497658e-02f, -2.033789642e-02f, -7.578452933e-04f, 1.959914900e-02f, -3.534395993e-02f,
  -1.903332956e-02f, 1.264407393e-02f, 3.512433916e-02f, 2.907067165e-02f, 1.106504444e-02f, -6.257464644e-03f, -3.370165080e-02f, -6.156374514e-02f,
  -3.906950820e-03f, 3.162800521e-02f, 2.300275490e-02f, -1.217452623e-02f, -4.412120953e-02f, 2.677880786e-02f, 2.203393914e-02f, -8.037807420e-03f,
  6.087638065e-02f, 2.378400043e-02f, -6.703907996e-02f, -2.706574649e-02f, 7.137213834e-03f, -1.826187596e-02f, -6.199989468e-03f, 1.294701546e-02f,
  -4.868908320e-03f, -1.193201914e-02f, 1.417543273e-02f, 3.076209873e-02f, 9.298824705e-03f, -1.698584296e-02f, -2.376294695e-02f, 3.823440149e-02f,
  4.348684102e-02f, 4.543979187e-03f, 4.102033563e-04f, -1.666049659e-02f, 4.860344529e-02f, -1.595339738e-02f, -2.768066153e-02f, 3.848195076e-02f,
  -1.716593280e-02f, -4.185453430e-02f, 1.613162830e-02f, 1.031330787e-03f, 1.532155555e-02f, 1.743712462e-02f, 2.327596582e-02f, -8.132945746e-03f,
  -4.091779515e-02f, -1.315489411e-03f, -2.501913533e-02f, -2.285437472e-02f, 4.236911982e-02f, 1.634315215e-02f, -1.488323789e-02f, 1.488351170e-02f,
  -1.836693659e-02f, 1.083879545e-02f, 1.434779353e-02f, -2.558946609e-03f, 2.813041583e-02f, -9.375188500e-03f, -2.258884197e-04f, -3.040736541e-03f,
  -3.778927261e-03f, -1.626269147e-02f, -6.740916055e-03f, 5.092217028e-02f, -8.223737590e-03f, -5.387277529e-02f, -5.452088546e-03f, 8.929137141e-03f,
  -5.570861045e-03f, -2.509001642e-03f, -2.479070798e-03f, 2.628971450e-02f, 2.705074102e-02f, -1.953210309e-02f, -5.189196672e-03f, 9.402874857e-03f,
  -9.253030643e-03f, 8.113280637e-04f, -6.796720438e-03f, -1.711718179e-02f, -1.255948842e-02f, -2.024267241e-02f, -3.683746979e-02f, 6.479796488e-03f,
  4.143387824e-02f, -3.640819341e-02f, -7.662793621e-03f, 3.802937269e-02f, -2.227073908e-02f, -1.586850733e-02f, 3.253866360e-02f, -8.552129380e-03f,
  -1.995055191e-02f, 8.042401634e-03f, -9.208405390e-03f, -1.985507784e-03f, -2.983474918e-02f, 2.333824290e-03f, 4.294559360e-02f, 3.082332667e-03f,
  -9.431372397e-03f, -2.881676890e-03f, 1.122540142e-02f, 1.522051357e-02f, -2.806210425e-03f, -2.222411335e-02f, -2.211594023e-02f, -1.978206448e-02f,
  1.113155950e-02f, 1.337672863e-02f, -6.821010262e-03f, 1.249448396e-02f, 3.872480989e-02f, -2.767894603e-02f, -1.946148463e-02f, 3.715172783e-02f,
  -3.439897299e-02f, 2.766767889e-02f, 6.688057911e-03f, -4.452506453e-02f, 2.427203208e-02f, -3.499391256e-03f, 1.735410839e-02f, 4.150433093e-02f,
  -1.212640479e-02f, -3.591722623e-02f, -5.890254863e-03f, 6.143212086e-04f, -7.262044121e-03f, 1.773996861e-03f, 9.179217741e-03f, 1.150362380e-02f,
  -2.504702425e-03f, 1.281567570e-02f, 2.109297551e-02f, -4.020909593e-02f, 1.309621148e-02f, 4.730454087e-02f, -5.668042693e-03f, 8.399554528e-03f,
  -3.253076598e-02f, -1.188661717e-02f, -2.857623389e-03f, -5.783974379e-02f, 5.463624001e-02f, 4.983216152e-02f, -1.874619164e-02f, 2.881848440e-02f,
  -2.253365144e-02f, -1.416065171e-02f, 1.061366126e-02f, -4.712461960e-03f, 1.507075969e-02f, -1.043109782e-02f, 3.168588877e-02f, -3.502383828e-03f,
  -5.613326281e-02f, 1.447127946e-02f, -2.270859666e-02f, -7.084744982e-03f, 2.224809432e-04f, 3.198378719e-03f, 5.603695661e-02f, -3.135766089e-02f,
  -8.366350085e-03f, 3.092098795e-02f, 3.923242446e-03f, -1.548256539e-02f, -6.066399626e-03f, 2.845360897e-02f, -2.299381606e-02f, -9.612316266e-03f,
  3.878207179e-03f, 2.120719105e-02f, -5.703117233e-03f, -6.275789440e-02f, 4.207574949e-02f, 3.119356930e-02f, -8.643096685e-02f, -2.968032786e-04f,
  -5.537008983e-04f, -5.798098282e-04f, -6.550513790e-04f, -7.266406901e-04f, -7.070515421e-04f, -6.989122485e-04f, -7.413575076e-04f, -6.777141243e-04f,
  -7.375669666e-04f, -7.037855685e-04f, -7.395517314e-04f, -7.212983910e-04f, -7.105143741e-04f, -6.935255951e-04f, -6.561068003e-04f, -6.914122496e-04f,
  -6.863692543e-04f, -7.041184581e-04f, -7.321499870e-04f, -7.308199420e-04f, -6.979646278e-04f, -7.378280279e-04f, -7.045632228e-04f, -7.261975552e-04f,
  -7.258048281e-04f, -7.354203844e-04f, -7.332182140e-04f, -7.657262613e-04f, -7.294317475e-04f, -7.434791769e-04f, -7.057210896e-04f, -7.592922193e-04f,
  -7.158211083e-04f, -7.460111519e-04f, -7.444280782e-04f, -7.120335358e-04f, -7.030852721e-04f, -7.044411614e-04f, -6.771209300e-04f, -6.947300863e-04f,
  -7.051615976e-04f, -6.905446062e-04f, -6.174751325e-04f, -6.336434162e-04f, -6.287044380e-04f, -5.428099539e-04f, -4.938741331e-04f, -3.707723808e-04f,
  2.910661977e-03f, 3.321728203e-03f, 3.813947318e-03f, 3.973137122e-03f, 4.904132802e-03f, 4.373766482e-03f, 4.689605907e-03f, 4.049225245e-03f,
  4.371926654e-03f, 4.299373366e-03f, 4.225151613e-03f, 4.508715589e-03f, 4.214706831e-03f, 4.637381528e-03f, 4.328645766e-03f, 4.504146054e-03f,
  4.508256447e-03f, 4.675155506e-03f, 4.281712696e-03f, 4.571206402e-03f, 4.428556189e-03f, 4.398613703e-03f, 4.239799455e-03f, 4.222986288e-03f,
  4.171221517e-03f, 4.200169817e-03f, 3.794869874e-03f, 3.898835275e-03f, 3.725894261e-03f, 4.100586288e-03f, 4.014997277e-03f, 3.992322832e-03f,
  4.071109928e-03f, 3.926789388e-03f, 4.124998581e-03f, 3.939622082e-03f, 4.003636073e-03f, 3.966338933e-03f, 4.052157979e-03f, 3.898640629e-03f,
  4.098517355e-03f, 4.086764995e-03f, 4.254749045e-03f, 3.923679702e-03f, 4.514128901e-03f, 3.658494912e-03f, 3.578773001e-03f, 2.883847803e-03f,
  2.172115492e-03f, -3.254832933e-03f, -3.017876763e-03f, -3.598605283e-03f, -3.612959525e-03f, -4.586088471e-03f, -4.429008812e-03f, -4.295265302e-03f,
  -5.110126454e-03f, -4.500678740e-03f, -4.868230317e-03f, -3.771664109e-03f, -4.560498055e-03f, -4.384200089e-03f, -4.197950475e-03f, -4.290229641e-03f,
  -3.781068604e-03f, -4.691727459e-03f, -4.374479875e-03f, -4.752569832e-03f, -4.235814791e-03f, -4.406242166e-03f, -4.698082805e-03f, -4.470692016e-03f,
  -4.734458867e-03f, -4.448081367e-03f, -5.076628178e-03f, -4.399267957e-03f, -4.894286394e-03f, -4.222271498e-03f, -4.185055848e-03f, -3.669623751e-03f,
  -4.555546679e-03f, -4.264285788e-03f, -5.037199240e-03f, -3.732657759e-03f, -4.814894870e-03f, -3.986144438e-03f, -4.531367216e-03f, -3.422759008e-03f,
  -4.555769265e-03f, -3.925425466e-03f, -4.042379558e-03f, -4.211482126e-03f, -4.225816578e-03f, -3.939396702e-03f, -3.884850536e-03f, -2.793667838e-03f,
  -3.447698662e-03f, -1.653973362e-03f, -6.194601767e-03f, -9.855208918e-03f, -9.816772304e-03f, -1.349758450e-02f, -1.557899825e-02f, -1.796213537e-02f,
  -1.686992124e-02f, -1.771145500e-02f, -1.737096906e-02f, -1.670642942e-02f, -1.708611846e-02f, -1.593184844e-02f, -1.639281958e-02f, -1.622623950e-02f,
  -1.578489877e-02f, -1.687446982e-02f, -1.507885568e-02f, -1.577746682e-02f, -1.581295766e-02f, -1.634291001e-02f, -1.348004397e-02f, -1.622522064e-02f,
  -1.345707942e-02f, -1.703600585e-02f, -1.513644494e-02f, -1.686206833e-02f, -1.515592914e-02f, -1.644743234e-02f, -1.686978526e-02f, -1.583014987e-02f,
  -1.584024727e-02f, -1.647973619e-02f, -1.427988056e-02f, -1.634197496e-02f, -1.509181410e-02f, -1.656158455e-02f, -1.597776636e-02f, -1.716902480e-02f,
  -1.623252779e-02f, -1.767111197e-02f, -1.564729214e-02f, -1.701863110e-02f, -1.602307521e-02f, -1.432186272e-02f, -1.445898321e-02f, -1.423199475e-02f,
  -1.246052701e-02f, -1.136047300e-02f, -7.644423284e-03f, -6.576352753e-04f, 1.244573272e-03f, 8.507401217e-04f, 2.495221328e-03f, 2.276314888e-03f,
  2.333055716e-03f, 2.823424526e-03f, 4.351625219e-03f, 3.063355107e-03f, 6.798230112e-03f, 5.352265667e-03f, 5.374772940e-03f, 4.277208354e-03f,
  1.484783832e-03f, 5.681774579e-03f, 3.992694430e-03f, 6.453678943e-03f, 4.385645967e-03f, 6.357001606e-03f, 4.140298814e-03f, 6.316504441e-03f,
  2.353384160e-03f, 5.839080550e-03f, 3.610488493e-03f, 7.703000680e-03f, 5.140735768e-03f, 8.139565587e-03f, 5.334798712e-03f, 7.474896964e-03f,
  6.182973273e-03f, 6.621156354e-03f, 6.089118309e-03f, 6.243533455e-03f, 6.254346576e-03f, 6.786701735e-03f, 5.887152161e-03f, 6.952553056e-03f,
  6.814561784e-03f, 5.437375512e-03f, 7.665828802e-03f, 5.944016855e-03f, 6.873332430e-03f, 5.137557629e-03f, 8.302805014e-03f, 5.601329729e-03f,
  8.117521182e-03f, 3.687576624e-03f, 5.240602884e-03f, 3.617330687e-03f, 2.864674293e-02f, 2.203629725e-02f, 1.856810413e-02f, 1.456967834e-02f,
  7.973261178e-03f, 1.650228165e-02f, 1.230522618e-02f, 1.326942258e-02f, 1.010845602e-02f, 7.500783540e-03f, 1.020260900e-02f, 4.064241424e-03f,
  1.281414181e-02f, -9.457581327e-04f, 1.491785236e-02f, 6.246723700e-03f, 9.269772097e-03f, 1.405575778e-02f, 1.117422804e-02f, 4.525157157e-03f,
  1.183418836e-02f, 8.211378008e-03f, 8.129595779e-03f, 1.827220694e-04f, 3.013405483e-03f, 9.774531936e-04f, 5.138534587e-03f, 3.289548913e-03f,
  5.863596220e-03f, 4.273612984e-03f, 9.795550723e-04f, 1.327168284e-04f, 7.056911476e-03f, 7.009343710e-03f, 1.313929912e-02f, 7.991974242e-03f,
  1.055710763e-02f, 5.945960525e-03f, 8.133328520e-03f, 3.704821458e-03f, 5.241312552e-03f, -3.408120014e-03f, 1.265338738e-03f, -1.028809696e-03f,
  1.401551301e-03f, 2.627800219e-03f, 1.374804229e-02f, 2.291728370e-02f, 2.863567881e-02f, -1.030487195e-02f, -1.321050455e-03f, -2.091288770e-04f,
  5.694825668e-03f, 8.137440309e-03f, 1.537953224e-02f, 1.777676493e-02f, 1.166868303e-02f, 1.531379111e-02f, 6.180052646e-03f, 2.270279825e-02f,
  4.444601014e-03f, 2.124192752e-02f, 1.748162694e-02f, 1.531210355e-02f, 1.248926949e-02f, 1.636477187e-02f, 8.569415659e-03f, 9.273291565e-03f,
  1.109874807e-02f, 7.135253400e-03f, 1.665398851e-02f, 1.179840509e-02f, 1.472474728e-02f, 1.061271410e-02f, 1.041186135e-02f, 1.439827029e-02f,
  1.090130117e-02f, 2.056301013e-02f, 1.293520723e-02f, 1.699723303e-02f, 1.549900696e-02f, 1.646693796e-02f, 1.626159251e-02f, 1.271891035e-02f,
  1.835529879e-02f, 1.095100213e-02f, 2.294631675e-02f, 8.581495844e-03f, 1.782739535e-02f, 1.014732011e-02f, 1.454563253e-02f, 1.814974123e-03f,
  3.035720671e-03f, 2.702789614e-03f, 5.318772513e-03f, 1.165530848e-04f, -1.027208194e-02f, -1.896140911e-02f, -1.838589832e-02f, -2.733341232e-02f,
  -3.401136398e-02f, -4.215322807e-02f, -5.792228505e-02f, -6.041339412e-02f, -5.771411955e-02f, -5.377282575e-02f, -5.611545593e-02f, -5.055851117e-02f,
  -6.152959913e-02f, -5.063993484e-02f, -5.733808130e-02f, -5.098955706e-02f, -5.159330368e-02f, -4.803739116e-02f, -4.574960470e-02f, -5.002209172e-02f,
  -4.854759201e-02f, -5.573023111e-02f, -4.823853821e-02f, -5.025595054e-02f, -5.328254774e-02f, -4.506993294e-02f, -5.271932855e-02f, -4.516904801e-02f,
  -4.579901695e-02f, -4.122523591e-02f, -4.850398749e-02f, -4.007714987e-02f, -4.546344653e-02f, -4.417465627e-02f, -4.373917729e-02f, -4.062714800e-02f,
  -4.625670984e-02f, -4.066275433e-02f, -5.192385986e-02f, -4.496572912e-02f, -5.604621023e-02f, -5.402130634e-02f, -5.018396676e-02f, -4.997280613e-02f,
  -5.499817431e-02f, -4.218867049e-02f, -4.236602411e-02f, -3.231202811e-02f, -2.597011253e-02f, -1.907664724e-02f, -4.860401619e-03f, -2.159282006e-02f,
  -1.180202141e-02f, -1.562649757e-02f, -1.580750686e-03f, -1.497358363e-02f, -2.093798947e-03f, -1.240939647e-02f, -1.603866345e-03f, -1.002866775e-02f,
  6.104168133e-04f, 1.849497086e-03f, 7.752690464e-03f, -6.192698143e-03f, -3.453247016e-03f, -1.415066328e-02f, -3.628700506e-03f, -8.857329376e-03f,
  3.202778753e-03f, -6.600537337e-03f, -4.539486952e-03f, -8.921421133e-03f, 2.689156914e-03f, -8.052930236e-03f, -5.020616576e-03f, -1.130627096e-02f,
  -3.162182635e-03f, -2.498776652e-03f, 2.268851502e-03f, 1.862081350e-03f, 5.324551836e-03f, -4.568649922e-03f, 9.057954885e-04f, -1.067621447e-02f,
  -2.841610694e-03f, 1.036612666e-03f, -4.566249903e-03f, 2.485286212e-03f, -8.807330392e-03f, 1.999932807e-03f, 1.733861514e-03f, 3.810070222e-03f,
  3.714455990e-03f, -3.812893061e-03f, -7.570985705e-03f, -9.943392128e-03f, -8.391758427e-03f, -1.448507607e-02f, -1.684028096e-02f, -1.633202843e-02f,
  5.124072358e-02f, 4.783478007e-02f, 5.154863745e-02f, 4.912028089e-02f, 4.917201772e-02f, 5.009135976e-02f, 5.160289258e-02f, 5.092774332e-02f,
  5.084811524e-02f, 5.187967792e-02f, 5.047383159e-02f, 5.286619440e-02f, 4.720649868e-02f, 5.075417832e-02f, 4.570109770e-02f, 5.168139189e-02f,
  4.414637387e-02f, 5.070169270e-02f, 4.440782592e-02f, 5.299053714e-02f, 4.555896670e-02f, 5.279000476e-02f, 4.382668063e-02f, 4.804060236e-02f,
  4.881118611e-02f, 4.974244162e-02f, 4.965792969e-02f, 5.045124143e-02f, 5.087574571e-02f, 5.009772256e-02f, 4.643859342e-02f, 4.478815943e-02f,
  4.831546172e-02f, 4.914531112e-02f, 5.117474496e-02f, 4.854601249e-02f, 5.565733090e-02f, 5.367347226e-02f, 5.513781309e-02f, 5.562894046e-02f,
  5.862186849e-02f, 5.309276283e-02f, 5.920112878e-02f, 5.379826576e-02f, 5.073798448e-02f, 5.261240155e-02f, 4.873826355e-02f, 5.542856455e-02f,
  5.762807280e-02f, -2.599515021e-03f, -2.533311024e-03f, -5.636536982e-03f, -5.579808261e-03f, -8.732669987e-03f, -1.074624155e-02f, -8.595248684e-03f,
  -9.839979000e-03f, -6.800845731e-03f, -7.569757290e-03f, -6.316788495e-03f, -6.293180399e-03f, -9.798137471e-03f, -6.295599975e-03f, -1.622950099e-02f,
  -1.660889946e-02f, -1.021097042e-02f, -1.372858416e-02f, -9.755086154e-03f, -3.023214871e-03f, -9.343022481e-03f, -5.831142887e-03f, -7.139680907e-03f,
  -2.405677689e-03f, 4.631753080e-03f, -5.382599309e-03f, -1.181272976e-02f, 7.697930560e-03f, -1.217150036e-02f, 7.062606048e-03f, -4.569033044e-04f,
  1.028011669e-03f, -1.835784502e-02f, -9.563045576e-03f, -1.249394473e-02f, -1.841413788e-02f, -8.433771320e-03f, -2.115103789e-02f, -8.894597180e-03f,
  -2.216659859e-02f, -7.987353019e-03f, -2.032165788e-02f, -2.300988138e-02f, -2.608866058e-02f, -3.938961774e-02f, -2.501084283e-02f, -3.377644345e-02f,
  -1.693122461e-02f, -9.464401752e-03f, -2.446505986e-02f, -2.690962143e-02f, -4.138903692e-02f, -5.778815970e-02f, -4.489923641e-02f, -6.752937287e-02f,
  -5.831935257e-02f, -6.494735926e-02f, -6.600611657e-02f, -6.468994915e-02f, -6.833411753e-02f, -6.109489501e-02f, -5.063524470e-02f, -6.170198321e-02f,
  -5.720043555e-02f, -6.650245935e-02f, -5.515524000e-02f, -5.844271183e-02f, -3.757752106e-02f, -6.150934473e-02f, -2.746281028e-02f, -8.287924528e-02f,
  -5.672375858e-02f, -8.602879941e-02f, -5.735562742e-02f, -7.596130669e-02f, -7.636539638e-02f, -6.739848107e-02f, -6.708471477e-02f, -7.240187377e-02f,
  -7.652900368e-02f, -6.126110628e-02f, -7.731126994e-02f, -6.790294498e-02f, -8.238946646e-02f, -6.845474243e-02f, -7.088352740e-02f, -5.891738087e-02f,
  -6.422877312e-02f, -5.934810266e-02f, -7.390141487e-02f, -5.840580538e-02f, -7.758526504e-02f, -7.610823959e-02f, -8.816920221e-02f, -9.696663171e-02f,
  -7.523160428e-02f, -7.561881095e-02f, -6.074049324e-02f, 9.572622180e-02f, 1.033881903e-01f, 9.724892676e-02f, 1.078004465e-01f, 8.904397488e-02f,
  1.077264026e-01f, 8.865149319e-02f, 1.030484363e-01f, 8.878472447e-02f, 1.058788002e-01f, 9.841369838e-02f, 9.623937309e-02f, 9.000161290e-02f,
  9.424497932e-02f, 9.077142179e-02f, 7.875379175e-02f, 8.512942493e-02f, 9.171787649e-02f, 9.820775688e-02f, 8.439856023e-02f, 1.030734405e-01f,
  8.367065340e-02f, 1.064458787e-01f, 9.057024121e-02f, 9.582015872e-02f, 9.723930061e-02f, 8.942487091e-02f, 9.399528056e-02f, 8.614853770e-02f,
  8.186250180e-02f, 8.360617608e-02f, 7.200150937e-02f, 8.526457846e-02f, 8.213025331e-02f, 1.012381464e-01f, 8.419875801e-02f, 8.813564479e-02f,
  9.390132129e-02f, 8.652277291e-02f, 1.019611135e-01f, 9.538020939e-02f, 9.212221205e-02f, 1.013977006e-01f, 1.122420356e-01f, 1.093419567e-01f,
  9.552174062e-02f, 9.138295799e-02f, 9.018476307e-02f, 6.914826483e-02f, -1.196131948e-02f, -6.628901698e-03f, -2.841877984e-03f, -4.001485184e-03f,
  -3.000721568e-03f, 7.054537535e-03f, -9.386673570e-03f, 5.936164875e-03f, 1.624641125e-03f, -6.858956069e-03f, -1.502743689e-04f, -4.395795055e-03f,
  7.154176943e-03f, 8.175912313e-03f, 1.473509427e-02f, 9.259515209e-04f, -7.434159052e-03f, -3.558813827e-03f, -1.194809098e-02f, -6.612903439e-03f,
  9.152100421e-03f, -1.500573475e-03f, -1.877847244e-03f, 2.953912131e-03f, -4.787983373e-03f, -2.314628102e-03f, -1.441333676e-03f, -7.003666367e-03f,
  5.998392589e-04f, 5.812040064e-03f, 5.933443550e-03f, -4.590325058e-03f, -3.037559101e-03f, 4.230232444e-03f, -6.336568855e-03f, 9.596078657e-03f,
  9.670510888e-03f, 1.420612214e-03f, 6.800177507e-03f, 2.927829977e-03f, -7.819030434e-03f, 1.129768556e-03f, 2.404763736e-02f, 1.515664812e-02f,
  -5.275824806e-04f, 3.454719204e-03f, 3.157270839e-03f, 3.699713852e-03f, 5.331518129e-03f, 1.792248711e-02f, 2.300286666e-02f, 1.162023004e-02f,
  2.116575651e-02f, 7.632124703e-03f, -2.658548020e-02f, -3.611102700e-02f, -3.334243596e-02f, 2.778414823e-02f, -1.818916015e-02f, 2.425822616e-02f,
  3.139789915e-04f, 1.510893740e-02f, 1.222278923e-02f, -1.515851635e-02f, 1.970003545e-02f, 1.928042993e-02f, -2.318026870e-02f, -1.192116737e-02f,
  1.400554739e-02f, -2.164083533e-02f, -2.014164813e-02f, -1.797302626e-02f, -7.031831425e-03f, -4.111772403e-03f, -4.222483188e-02f, -3.075269982e-02f,
  -5.625866354e-03f, 2.079575695e-02f, 2.979326621e-02f, -1.307777315e-02f, 7.140740287e-03f, -4.184719641e-03f, 5.004149396e-03f, 7.190318429e-04f,
  -1.371483970e-02f, 3.900207346e-03f, 6.537822541e-03f, -8.110092022e-03f, 4.720014986e-03f, 1.962112635e-02f, 1.733777486e-02f, -1.693508960e-02f,
  3.020412847e-02f, -1.400615089e-02f, -2.508814447e-02f, -1.457227487e-02f, -3.670836613e-02f, -3.407020494e-02f, 6.584501825e-03f, -8.104170673e-03f,
  -1.320550404e-02f, -2.527843975e-02f, -3.000710532e-02f, 1.139695197e-02f, -3.009541705e-02f, -5.983858835e-03f, 1.084647421e-02f, 2.996033430e-02f,
  1.282396540e-02f, -2.628506348e-02f, 1.980505884e-02f, 3.480103333e-03f, 1.518567372e-02f, -2.051576227e-02f, -2.598959766e-02f, 8.359270287e-04f,
  6.875012536e-03f, 1.230433211e-02f, -2.308705822e-02f, -1.256162883e-03f, 2.047764370e-03f, 4.489873245e-04f, -1.929937303e-02f, 1.657634857e-03f,
  9.885637090e-03f, 1.037205197e-02f, 3.282067925e-02f, 2.252121270e-02f, -1.941166446e-02f, -2.668071538e-02f, -1.825813018e-02f, 2.367901243e-02f,
  7.423585281e-03f, -1.253753155e-02f, 1.421124768e-02f, 2.859274484e-02f, -1.035884256e-03f, -2.512829937e-02f, 2.315189876e-02f, -1.239608414e-02f,
  -5.247849971e-03f, 1.287961006e-02f, 1.081487630e-02f, 3.055135533e-02f, 1.167458203e-02f, 2.720919438e-02f, 5.897536874e-02f, -5.643457919e-02f,
  -4.306139797e-02f, -4.238217697e-02f, -6.778060645e-02f, -6.251813471e-02f, -2.294784971e-02f, 4.637609236e-03f, -8.387687616e-03f, 1.892770454e-02f,
  6.420318969e-03f, 1.489970461e-02f, 1.214691717e-02f, -6.602492649e-03f, 1.135323104e-02f, -9.940830059e-03f, 1.170753501e-02f, 1.992519945e-02f,
  -1.300377678e-02f, -1.313508488e-02f, 4.306196421e-02f, 3.833730239e-03f, -1.097109634e-03f, -1.587660424e-02f, -2.892355435e-02f, 4.550236277e-03f,
  -2.136510098e-03f, 8.421212435e-03f, -2.991735190e-02f, 9.052064270e-03f, 1.818280481e-02f, -1.066603791e-02f, 2.862337045e-02f, 3.506958717e-03f,
  -1.441277284e-02f, -4.245388787e-03f, -1.593563147e-02f, -1.077126525e-02f, -4.541208968e-03f, -9.148496203e-03f, 1.073725987e-02f, 1.248963363e-02f,
  -8.219937794e-03f, 4.557111114e-02f, 2.860488929e-02f, 3.168366617e-03f, 2.508212999e-02f, 3.150298446e-02f, 5.669729784e-02f, 5.620679632e-02f,
  2.643357776e-02f, 1.624379680e-02f, 1.275898796e-02f, 1.558878832e-02f, -1.996114850e-03f, 1.019051485e-02f, 3.452995792e-02f, 3.231173847e-03f,
  4.296839610e-02f, 4.107339680e-02f, -2.489460446e-02f, -1.962909289e-02f, -6.936220080e-02f, 2.511292323e-02f, 4.484624043e-02f, 1.407789346e-02f,
  6.005998701e-03f, -2.501040231e-03f, -3.859911347e-03f, 7.130887388e-05f, -3.079067543e-02f, -9.332543239e-03f, 2.151639760e-02f, 3.431304172e-02f,
  2.766674757e-02f, 7.973715663e-03f, 2.948186593e-03f, -1.370074786e-02f, 1.518600807e-02f, -1.341100596e-02f, -4.408055102e-04f, -7.935749367e-03f,
  9.775386425e-04f, 1.049542986e-02f, -5.121893715e-03f, 4.159482662e-03f, 1.574977860e-02f, -2.851789072e-02f, 1.521467231e-02f, 9.563952684e-03f,
  -1.295075938e-02f, -1.471142005e-02f, 2.405731380e-02f, 8.807755075e-03f, -5.115419044e-04f, -2.174098417e-02f, -2.919901721e-02f, -5.021610559e-05f,
  -2.300509252e-02f, -3.987527639e-02f, -5.392712355e-02f, -3.893188760e-02f, -4.987451062e-02f, 6.317529362e-03f, 2.127779089e-02f, -1.599062793e-02f,
  -1.022618264e-02f, -2.984575741e-02f, 1.555719791e-04f, -1.721810549e-02f, 1.265405864e-02f, -2.502596006e-02f, 1.094178017e-02f, 3.575913236e-02f,
  -2.830472961e-02f, 3.956643119e-02f, 9.630729444e-03f, -4.784083366e-02f, 3.111653496e-03f, 1.850015111e-02f, -1.835831441e-02f, -4.035370424e-02f,
  -2.522770688e-02f, 4.016788676e-03f, 1.050961949e-02f, 1.183757000e-02f, 4.039736930e-03f, 4.854668863e-03f, -2.500980906e-02f, -2.068759874e-02f,
  3.067389689e-02f, 3.478413820e-02f, 3.106250428e-02f, 4.614584148e-03f, -1.280246209e-02f, -1.025286317e-02f, -1.176832430e-02f, -1.126265433e-02f,
  -1.472488791e-02f, -3.596203774e-02f, -1.954036206e-02f, 1.189972460e-02f, 6.973749259e-04f, 1.782200485e-02f, 5.672618374e-02f, 9.124316275e-02f,
  7.592561841e-02f, 3.476660699e-02f, 3.994464502e-02f, 3.972552344e-02f, 2.653109841e-02f, 3.089649975e-02f, 3.821109608e-02f, 4.205640033e-02f,
  -1.627333835e-02f, -9.792990051e-03f, -2.442008629e-02f, 3.155479208e-02f, -7.274141535e-03f, -6.956354715e-03f, 5.752281100e-02f, -2.638337202e-02f,
  -2.263619564e-02f, 5.476325750e-03f, -1.725282520e-02f, -3.152989224e-02f, 1.108668745e-02f, -9.103513323e-03f, 2.374036051e-02f, 2.005387098e-02f,
  -7.507035043e-03f, -4.990173504e-03f, -1.909151301e-02f, 1.642231084e-02f, 2.197761321e-03f, 2.739755251e-02f, 8.535822853e-03f, -1.620775647e-02f,
  1.157268789e-02f, -3.158415668e-03f, 3.702002810e-03f, -1.666208170e-02f, 8.354575373e-03f, -7.497035433e-03f, 2.218861505e-02f, -1.012123190e-02f,
  -2.426417731e-02f, 6.563764066e-03f, -1.430019643e-02f, -3.678601235e-02f, -5.055648088e-02f, 3.919496667e-03f, 1.019995008e-02f, -9.994062595e-03f,
  -6.119407713e-02f, -7.553298026e-02f, -3.943692148e-02f, -4.851075262e-02f, -7.744795084e-02f, -7.331540436e-02f, -1.136807278e-01f, -9.208276868e-02f,
  3.169808071e-03f, 3.764732182e-02f, 3.447177121e-03f, 1.965921931e-02f, -2.708274126e-02f, -1.812171773e-03f, 2.447189018e-02f, -6.005018950e-03f,
  3.131145984e-02f, 2.106929570e-02f, 3.070628457e-02f, -1.102874801e-02f, -1.444767136e-02f, -3.289795294e-02f, 3.997941501e-03f, 3.272331879e-02f,
  -3.095416352e-02f, 2.424247377e-02f, 8.403823012e-04f, 2.659709193e-03f, 4.122016951e-02f, 2.487429418e-02f, -1.748886518e-02f, 6.606423762e-03f,
  1.975679770e-02f, -2.319672890e-02f, 6.733438000e-03f, 1.478879619e-02f, -1.111543365e-02f, 1.116572646e-03f, -3.420019522e-02f, -2.283431962e-02f,
  -2.623640746e-02f, -5.247776210e-02f, 3.608697280e-02f, 2.460004576e-02f, -2.743131109e-02f, 3.924032301e-02f, 7.415593415e-02f, 5.714960024e-02f,
  8.072989434e-02f, 6.629954278e-02f, 1.047475487e-01f, 7.710362971e-02f, 4.340229556e-02f, 2.545466088e-02f, 4.184097424e-02f, 3.280396108e-03f,
  -2.143514343e-03f, 1.057331264e-02f, 2.232633298e-03f, 1.058393437e-02f, 9.983230382e-03f, 5.279008299e-02f, 3.160976991e-02f, -3.639176115e-02f,
  -4.931968451e-02f, -3.551730886e-02f, -6.166702951e-04f, 2.392212115e-02f, 3.025612980e-02f, 9.322060272e-03f, -3.518974781e-02f, -1.021891925e-02f,
  3.252225369e-02f, 4.028244410e-03f, -3.495900705e-02f, -1.405382808e-02f, 8.560270071e-03f, 3.954175115e-02f, 2.431219257e-02f, 1.946631260e-02f,
  1.340406202e-02f, -2.845923044e-02f, -1.926449127e-02f, -2.729190141e-02f, -1.678706519e-02f, 5.287093297e-02f, -7.504497189e-03f, 6.574419793e-03f,
  -1.944850758e-02f, -2.075651661e-03f, 4.733263329e-02f, 7.881631143e-03f, 8.899795823e-03f, -3.390534222e-02f, -5.110566691e-02f, -2.725418098e-02f,
  -3.245616099e-03f, -1.975974254e-02f, -3.542533144e-02f, -8.502316661e-03f, 1.313943416e-03f, -1.338640787e-02f, 1.416103356e-02f, 2.097862214e-02f,
  -6.726733409e-04f, 1.568234898e-02f, 2.004170232e-02f, 3.201259999e-03f, -5.421408452e-03f, 8.752941154e-03f, -1.671160688e-03f, 7.032508031e-03f,
  -2.462905832e-02f, -1.592776924e-02f, -1.258270163e-02f, 5.722435191e-03f, -1.118287910e-02f, -5.984432530e-03f, 3.840644378e-03f, 1.653076336e-02f,
  7.128799800e-03f, -3.292557085e-03f, -1.114641130e-02f, -3.405595198e-02f, 3.322963417e-02f, 1.543918066e-02f, 7.936705835e-03f, 1.406908617e-03f,
  1.135026850e-02f, -3.768106923e-03f, -3.517067060e-02f, -3.744788468e-02f, 1.355075091e-02f, 3.370766714e-02f, 2.067937143e-02f, -5.542418920e-03f,
  3.130014986e-02f, 3.709822893e-02f, -1.844571671e-03f, 1.345657837e-02f, 2.542265505e-02f, -1.832505316e-02f, 2.299986780e-03f, 5.629285704e-03f,
  -6.176638976e-02f, -1.298326533e-02f, -2.302481979e-02f, 2.509565093e-03f, 3.596049547e-02f, 3.584894817e-03f, 3.705898052e-05f, -8.115063421e-03f,
  -8.060376160e-03f, -8.450947702e-03f, -1.469225902e-02f, 6.504169432e-04f, 2.450001892e-03f, 4.859094508e-03f, 6.480763666e-03f, 1.273320173e-03f,
  3.442007815e-03f, -9.549844079e-03f, 1.126036659e-05f, -1.821000874e-02f, -2.926303074e-02f, 1.717333682e-02f, 8.541197516e-03f, 9.833234362e-04f,
  3.002673946e-02f, 1.444889815e-03f, -8.154978044e-03f, 6.141011138e-03f, 9.948177263e-03f, 3.350279853e-02f, -8.377678692e-03f, -4.664247483e-02f,
  3.728444874e-02f, -1.225706073e-03f, -1.984954346e-03f, 3.355036303e-02f, -1.709131896e-02f, -5.040739104e-02f, -3.031996451e-02f, 1.620940305e-02f,
  -2.489669435e-02f, 1.172965486e-02f, -6.892967038e-03f, -1.984470058e-03f, -2.957144519e-03f, 2.929868642e-03f, 5.138099194e-03f, -4.244081303e-02f,
  -1.587510854e-02f, -4.436510801e-02f, 2.712931950e-03f, 1.549116615e-02f, 2.206926607e-02f, 6.574789435e-02f, 2.050713822e-02f, -6.137159653e-03f,
  -3.468450159e-02f, -6.367175281e-02f, -1.141652558e-02f, -2.292368747e-02f, -3.050828725e-02f, 4.735093098e-03f, -1.520057302e-02f, 3.854066017e-04f,
  -3.530720249e-03f, 7.821621373e-03f, 3.676429391e-02f, 8.315773448e-04f, -1.343249157e-02f, -1.104737911e-02f, 4.214093089e-03f, 1.881291531e-02f,
  3.922108561e-02f, -9.420743212e-03f, 2.297321707e-02f, -4.657647386e-02f, -6.462419033e-02f, -5.547863897e-03f, -2.248345176e-03f, 2.014994994e-02f,
  -4.342974722e-02f, 2.048018761e-02f, 2.080118284e-02f, -1.024247240e-02f, -1.899128594e-02f, 2.414236590e-02f, -3.928002436e-03f, -1.444587763e-02f,
  -9.989702143e-03f, -1.646054094e-03f, 2.464979514e-02f, 2.069046907e-02f, 1.597747020e-02f, -9.697318310e-04f, -2.307821624e-02f, 1.244321815e-03f,
  -7.807743736e-03f, -3.806079552e-02f, -2.286965586e-02f, -4.633783549e-02f, 2.788890712e-02f, 4.904810339e-02f, 3.620592877e-02f, 3.436461836e-02f,
  2.067251317e-02f, 8.927235380e-03f, 1.385736186e-02f, -1.019042917e-02f, 4.491891712e-03f, 1.073790263e-04f, -8.875596337e-03f, -1.231647097e-03f,
  2.779565053e-03f, 2.013502270e-02f, -1.815302111e-02f, -1.768830791e-02f, -6.381712854e-03f, 5.683522322e-04f, -3.056428581e-02f, -8.602852933e-03f,
  2.770795487e-02f, 2.692581713e-02f, -1.418539882e-02f, 9.821311571e-03f, -1.075932174e-03f, 5.021146964e-03f, 1.088517904e-02f, -2.054583840e-02f,
  1.683021896e-02f, -1.086292602e-02f, -6.650420837e-03f, -1.094481815e-02f, -2.507546544e-02f, -4.223158583e-03f, -1.902932301e-02f, 4.260281101e-03f,
  1.806211285e-02f, 3.570856526e-02f, 4.846420605e-03f, -2.739985846e-02f, 2.429304086e-02f, -4.781745840e-03f, 1.741975732e-02f, 2.018369362e-02f,
  -2.213016897e-02f, 1.066647004e-02f, 4.039160535e-02f, 1.516885031e-02f, -3.612114117e-02f, -3.794575855e-02f, -1.383471768e-02f, -4.868563637e-02f,
  -4.757294431e-02f, -3.351653228e-03f, 3.863482270e-03f, 2.609742573e-03f, 1.818399760e-03f, 8.152130060e-03f, 2.232877770e-03f, -1.256832387e-03f,
  7.480618078e-03f, -8.680609986e-03f, -1.214638352e-03f, 1.474145683e-03f, 5.175339989e-03f, 8.297799155e-03f, 5.256780889e-03f, -5.314942449e-03f,
  -1.517751813e-02f, -3.128796816e-03f, -2.863805275e-03f, -2.184959361e-03f, 1.436387189e-02f, 3.447319847e-03f, -7.174591068e-03f, 2.959835343e-03f,
  -2.098137280e-03f, -3.691449063e-03f, 2.247099299e-03f, -3.363637021e-03f, 1.395881060e-03f, 8.720325306e-03f, 3.530479735e-03f, -7.120467257e-03f,
  -6.198277697e-03f, 6.101364736e-03f, -2.112962306e-03f, 4.166025668e-03f, 1.094367448e-02f, -5.297076423e-03f, -1.885033911e-03f, 9.982334450e-04f,
  -9.985513985e-03f, -1.154218800e-03f, 2.162569575e-02f, 9.626218118e-03f, -1.238045376e-02f, 2.713501919e-03f, 5.700871814e-03f, 1.789149013e-03f,
  -9.847972542e-04f, -4.736224655e-03f, 4.173436388e-02f, 1.493246411e-03f, -4.989051376e-04f, -6.640892476e-03f, -3.839752451e-02f, -2.474069782e-02f,
  -3.787016496e-03f, 4.301216081e-02f, 1.024766732e-02f, -2.949527232e-03f, 1.252030209e-02f, -5.759715103e-03f, 7.786327042e-03f, -2.023912221e-02f,
  4.780369345e-03f, 2.339109406e-02f, -2.911856957e-02f, -2.106774971e-02f, 2.478071861e-02f, -6.462996826e-03f, -2.321663871e-02f, 2.365545603e-03f,
  8.700323291e-03f, 9.282295592e-03f, -2.424437925e-02f, -1.834537834e-02f, 2.378904261e-02f, 3.464747965e-02f, 2.360712178e-02f, -2.285777219e-02f,
  -1.612957567e-02f, 6.000906229e-03f, -1.478571561e-03f, 3.284614999e-03f, -1.279603597e-02f, 2.125135157e-03f, 1.361890603e-02f, -8.109970018e-03f,
  -1.117455191e-03f, 1.840277016e-02f, 8.282308467e-03f, -2.502555028e-02f, 8.264165372e-03f, -2.712921705e-03f, -4.240530729e-02f, -1.092215348e-02f,
  -1.730653457e-02f, -7.277245633e-03f, 5.854116753e-02f, -3.671457991e-02f, -1.691450924e-02f, -1.331044547e-02f, -7.632086519e-03f, 3.087848797e-02f,
  7.454791106e-03f, -1.187827159e-02f, 2.765069902e-02f, 2.430899628e-02f, 1.323273405e-03f, -3.799204156e-02f, 4.872095305e-03f, 2.006244846e-02f,
  -3.100148868e-03f, -1.612753980e-02f, -2.763042040e-02f, 1.442011259e-02f, 2.230463736e-02f, 7.777606137e-03f, -2.023916505e-02f, -9.196870029e-03f,
  1.688946597e-02f, 1.181996893e-03f, -1.434380468e-02f, 8.212075918e-04f, 1.974573545e-02f, 5.892223679e-03f, 1.571019739e-02f, 8.164484985e-03f,
  -3.517028317e-02f, -3.322527930e-02f, 8.494190988e-04f, 3.416752815e-02f, 1.739065535e-02f, -2.443868853e-02f, 4.470258951e-03f, 2.773426846e-02f,
  -1.024069916e-02f, -3.613742813e-02f, 1.618644968e-02f, 8.726056665e-03f, -1.909367368e-02f, 1.718652062e-02f, 1.140296739e-02f, 2.207082696e-02f,
  5.435549654e-03f, 5.413963227e-04f, 2.724416181e-02f, 3.922739252e-02f, 2.437113551e-03f, 7.377382717e-04f, -1.861616038e-02f, -6.387399044e-03f,
  4.489519447e-02f, 5.156047270e-02f, 9.987140074e-03f, 9.758403525e-03f, 1.003540773e-02f, -2.794761444e-03f, 3.893102054e-03f, -1.447799709e-02f,
  -6.233144668e-04f, -2.206069883e-03f, 2.848268778e-04f, 1.995170116e-02f, -1.665258408e-02f, -2.232788317e-02f, 3.743527457e-02f, 1.134635601e-02f,
  -3.030584753e-02f, -1.312353835e-02f, -1.896169223e-02f, 1.387637947e-02f, 1.831122302e-02f, 2.609374234e-03f, -1.897593401e-02f, 3.829219786e-04f,
  3.240667656e-02f, -1.332287025e-02f, 6.824176759e-03f, 9.535264224e-03f, -2.900595404e-02f, -5.241391249e-03f, -9.919903241e-04f, -4.370142240e-03f,
  7.570172660e-03f, 1.268385560e-03f, 1.031522825e-02f, 1.477116439e-02f, -1.285717729e-02f, 2.283479273e-02f, 2.490493469e-02f, -2.718713880e-02f,
  3.458977444e-03f, 2.494511381e-02f, 2.713774703e-02f, 9.942717850e-03f, -3.119598143e-02f, -1.181602105e-02f, -7.413445506e-03f, -1.419488573e-03f,
  -1.256936602e-02f, -8.285272866e-03f, 2.354038320e-02f, -4.802617244e-03f, 5.497122183e-03f, 2.605252527e-02f, -4.710154608e-02f, -4.168077931e-02f,
  -3.168559447e-02f, 3.074131906e-02f, 7.806740701e-02f, -7.463411894e-03f, -2.654468827e-02f, -1.134361979e-02f, -6.802993361e-03f, 1.767690992e-03f,
  -1.856592856e-02f, -6.455657072e-03f, 3.573664278e-02f, 3.012301587e-02f, 4.082526080e-03f, -1.784238964e-02f, -1.691302843e-02f, -1.484003477e-02f,
  8.367320523e-03f, 3.700983652e-04f, -1.069935504e-02f, 3.748256713e-03f, 9.599559125e-04f, 1.265178062e-02f, -4.193500150e-03f, -4.388742149e-03f,
  1.427958999e-02f, -2.260444500e-02f, -4.355714773e-04f, 2.598442696e-02f, -1.943957619e-02f, -1.649693772e-02f, 2.540704794e-02f, 1.625521481e-02f,
  -1.617038809e-02f, -2.412854694e-02f, -2.642297931e-02f, 1.589598507e-02f, 1.019295212e-02f, -4.501771554e-02f, -4.232988879e-02f, -2.097492805e-03f,
  3.994235303e-03f, 3.328139707e-02f, 5.111107975e-02f, -1.500126254e-02f, -2.138207853e-02f, -9.219681844e-03f, 7.060645148e-03f, 8.207048289e-03f,
  8.542838506e-03f, -5.389177706e-03f, -1.186882146e-03f, 4.136536643e-02f, -2.667193674e-02f, 2.368133748e-03f, 2.588325180e-02f, -5.936330184e-02f,
  -4.422413185e-03f, 4.532745853e-02f, -1.467135921e-02f, -3.996424004e-02f, -4.860991612e-03f, 3.023212217e-02f, 2.432165109e-02f, 5.321214907e-03f,
  -4.351282958e-03f, -4.727048334e-03f, -1.954275556e-02f, -1.745273173e-02f, 3.783812374e-02f, 3.756702319e-02f, 1.191663250e-04f, -2.071865462e-02f,
  -2.986944467e-02f, -1.012916025e-02f, 5.212007090e-04f, -8.116447134e-04f, -2.056981437e-03f, -1.662584953e-02f, -3.248015419e-03f, 3.235499561e-02f,
  1.403843891e-02f, 4.378962796e-03f, 4.182595760e-02f, 5.786182731e-02f, 1.600755751e-02f, -4.491404817e-02f, -9.872461855e-02f, 9.669869207e-03f,
  -6.906584837e-03f, -7.025004830e-03f, 5.971469916e-03f, 3.545326181e-03f, -3.797307238e-02f, -3.543937206e-02f, -5.273747258e-03f, 2.807267010e-02f,
  1.150354091e-02f, -2.641758136e-02f, 4.362217709e-02f, -1.331239101e-02f, -5.460751057e-02f, 2.164756879e-02f, 3.765816102e-03f, -2.515431680e-02f,
  1.927823573e-02f, 1.501577161e-02f, 8.593239821e-03f, 1.973779313e-02f, -2.108075283e-02f, -1.706959493e-02f, -7.777884603e-03f, 1.448414288e-02f,
  1.441538427e-02f, 7.476449478e-03f, 4.262201954e-03f, -2.962781116e-02f, 2.109644236e-03f, 8.951430209e-03f, -5.384331569e-03f, -9.201308712e-03f,
  3.207165515e-03f, 6.068510469e-03f, 9.253419936e-03f, -1.799230347e-03f, -3.161254898e-02f, 1.136535406e-02f, 6.769035943e-03f, -2.954963967e-02f,
  -2.463254146e-02f, 2.763241343e-02f, 4.100204632e-02f, -9.959744290e-03f, -5.210264400e-02f, -4.849874973e-02f, 1.821165718e-02f, 9.185017645e-02f,
  -7.331030816e-02f, -2.194332331e-02f, -2.627295256e-02f, -8.435624652e-03f, 8.638881892e-02f, 9.045216441e-02f, 1.826330990e-04f, -1.221972704e-02f,
  -2.065696940e-02f, -1.438565366e-02f, 3.483440727e-02f, -2.811790444e-03f, 5.049119703e-03f, 1.821585558e-02f, -3.762058914e-04f, -2.169018611e-02f,
  -3.041852824e-02f, -1.479552500e-02f, 1.247888058e-02f, 4.431534931e-02f, -2.348153479e-02f, -5.867697299e-03f, 2.160646208e-02f, -1.462853793e-02f,
  2.737404034e-02f, 1.484499685e-02f, -3.962318972e-02f, -1.225909684e-02f, 2.515432425e-02f, -2.016837336e-02f, -8.902886882e-03f, 2.559273690e-02f,
  -1.211505476e-02f, -9.263991378e-03f, -1.549809147e-02f, -1.633575559e-02f, 5.103523843e-03f, -2.012206428e-02f, 4.191132262e-02f, 5.266328901e-02f,
  -4.315710440e-02f, 1.006970648e-02f, 6.830408424e-02f, 1.346285827e-02f, 1.137165725e-02f, 1.129623223e-02f, 2.035372145e-02f, 3.657398047e-03f,
  -7.743379474e-02f, -3.343135864e-02f, 6.564548239e-04f, -1.535589900e-02f, -3.105357476e-02f, 4.553068429e-03f, 3.000440774e-03f, 6.575413863e-05f,
  5.189698189e-03f, 2.891102992e-02f, 1.494027395e-02f, -6.120343879e-02f, -5.514458939e-02f, 4.421542690e-04f, 3.321854398e-02f, 4.043180868e-02f,
  2.093925513e-02f, -9.724134579e-03f, -4.476878420e-02f, -1.333435811e-02f, 4.629387707e-02f, 9.702663869e-03f, -4.615128040e-02f, -1.232368127e-02f,
  2.953550033e-02f, 3.645449132e-02f, 1.065235958e-02f, -1.326903608e-02f, -7.308216300e-03f, -3.259615973e-02f, -2.218247950e-02f, 1.118069980e-03f,
  1.862399862e-03f, 5.468719825e-02f, 6.483219564e-03f, -3.149667010e-02f, -8.181015961e-03f, -5.881645251e-03f, 4.559548944e-02f, 6.764639169e-03f,
  -2.639643475e-02f, -2.844712138e-02f, -4.085427895e-02f, 4.645013716e-03f, 3.212946653e-02f, 4.157735500e-03f, -2.309402265e-02f, 7.407050114e-03f,
  2.574353479e-02f, 2.093961649e-02f, 5.861464143e-02f, 2.445206046e-02f, -1.058983151e-02f, -5.241939332e-03f, 1.312710810e-02f, -9.188689291e-03f,
  -1.737631857e-02f, 3.903929843e-03f, 2.515585627e-03f, -1.209337730e-03f, -1.558332704e-02f, -1.564848050e-02f, 8.017274551e-03f, 1.465516444e-02f,
  1.060184906e-03f, -7.931471802e-03f, 1.023508701e-02f, 1.519059669e-02f, 2.191862324e-03f, -1.344357710e-02f, -1.242754422e-02f, -2.080390044e-02f,
  3.011223115e-02f, 3.330700845e-02f, -1.716049016e-02f, -9.488579817e-03f, 2.355140867e-03f, -3.509059316e-03f, -3.124785423e-02f, -2.278890833e-02f,
  3.306238726e-02f, 4.826500639e-02f, 4.854898900e-03f, -2.629777975e-02f, 7.332092151e-03f, 2.877746522e-02f, -2.251887694e-02f, -1.601130329e-02f,
  1.840038039e-02f, -2.149923705e-02f, -1.588477567e-02f, 1.604131237e-02f, -4.360561445e-02f, -1.270938292e-02f, 2.342467010e-02f, 1.045580395e-02f,
  4.269753397e-02f, 5.797093618e-04f, -7.329628617e-02f, -1.660492271e-02f, -5.520825274e-03f, -3.012507514e-04f, -4.318118561e-03f, 6.389198825e-03f,
  1.169342082e-02f, 2.877529943e-03f, 2.714422764e-03f, -2.404517028e-03f, -2.068435075e-03f, -7.304752711e-03f, -2.305955393e-03f, -5.858645309e-03f,
  -1.994759403e-02f, 2.393187024e-02f, 2.578076348e-02f, -1.096938271e-02f, 1.473982260e-02f, 3.340185212e-04f, -2.596297301e-02f, 3.205295652e-03f,
  1.229108777e-02f, 1.850482821e-02f, -1.242460124e-02f, -5.419397354e-02f, 3.098741919e-02f, 3.055997565e-02f, -2.644673176e-02f, 2.350016870e-02f,
  -1.019173209e-02f, -5.694186315e-02f, -9.114239365e-03f, 4.516718164e-02f, 3.275796771e-03f, -2.953032963e-03f, 1.209713705e-02f, -9.402163327e-03f,
  2.730307868e-03f, 3.345711157e-03f, 5.495700054e-03f, -3.086237609e-02f, -1.425212063e-02f, -1.717206440e-03f, 1.256474201e-02f, 4.060054198e-02f,
  1.354081649e-02f, 3.500736505e-02f, -1.743627014e-03f, -9.272681922e-02f, -5.924010649e-02f, -3.971350938e-02f, 1.594235003e-02f, 2.847264335e-02f,
  -1.246877946e-02f, 1.900453866e-02f, 1.040866878e-02f, -3.001860809e-03f, 7.970086299e-03f, 5.057452247e-03f, 2.737050503e-02f, -4.767235834e-03f,
  -3.386124969e-02f, -7.973968983e-03f, 1.202077977e-02f, 2.039327659e-02f, 2.374723554e-02f, -1.902974397e-02f, -1.132638287e-02f, -2.500735782e-02f,
  -5.947757512e-02f, 2.808592469e-02f, 4.232667759e-02f, 1.745543629e-02f, -2.814680710e-02f, 3.347996681e-04f, 4.345801845e-02f, -2.087912895e-02f,
  -2.692478336e-02f, 2.316818945e-02f, 1.036847662e-02f, -2.622157708e-02f, -4.045571666e-03f, 8.606156334e-03f, 2.350842208e-02f, 1.516199391e-02f,
  -5.583725870e-03f, -1.462033205e-02f, -2.639003098e-02f, 1.515471144e-03f, 1.040379796e-02f, -2.647684515e-02f, -1.031909045e-02f, -6.484252866e-03f,
  3.470987827e-02f, 6.506423652e-02f, 5.810673349e-03f, -1.140661631e-02f, -5.480375141e-03f, -2.255093865e-02f, -4.216222093e-03f, -1.311177108e-02f,
  -6.335009821e-03f, 7.070980500e-03f, -9.066515602e-03f, -8.968357579e-04f, 7.939151488e-03f, 1.441472210e-02f, -1.414186135e-02f, -2.554652281e-02f,
  8.054009639e-03f, 1.237351820e-02f, -1.636087708e-02f, -6.175537594e-03f, 3.962146491e-02f, 2.412927710e-02f, -2.841646224e-02f, -1.158215012e-02f,
  8.883009665e-03f, -3.307620529e-03f, 8.066125214e-03f, -1.738743857e-02f, 4.072288051e-03f, 6.428631023e-03f, -1.592937671e-02f, -1.159396706e-04f,
  -1.258141082e-02f, 4.594309721e-03f, 4.135920666e-03f, 5.762406625e-03f, 2.511908486e-02f, 2.150372230e-02f, -9.070024826e-03f, -4.266244173e-02f,
  1.334998664e-02f, 1.536624040e-02f, -4.537615459e-03f, 1.685767807e-02f, -2.667808719e-02f, -6.206031889e-03f, 4.204778373e-02f, 2.945607295e-03f,
  -5.211705342e-02f, -3.631163388e-02f, 1.468632836e-02f, -7.684696466e-03f, -2.168688178e-02f, 8.058411069e-03f, 9.711669409e-04f, 1.341475174e-03f,
  1.621767296e-03f, 1.646767138e-03f, 1.909596729e-03f, 1.601367840e-03f, 1.815661788e-03f, 1.804875559e-03f, 1.842809026e-03f, 2.054355806e-03f,
  2.028202871e-03f, 1.964712050e-03f, 2.112746472e-03f, 1.927945530e-03f, 2.138689626e-03f, 1.776681049e-03f, 1.952769584e-03f, 1.838549157e-03f,
  1.733702957e-03f, 1.865831320e-03f, 1.739257365e-03f, 1.741287881e-03f, 1.840765472e-03f, 1.796419267e-03f, 1.908306731e-03f, 1.803735271e-03f,
  2.006905619e-03f, 1.880883006e-03f, 2.113127382e-03f, 1.900458243e-03f, 2.003840404e-03f, 1.888153842e-03f, 2.141312696e-03f, 1.947200741e-03f,
  2.167046769e-03f, 2.032320248e-03f, 2.370936563e-03f, 2.086711815e-03f, 2.298067557e-03f, 2.113553230e-03f, 2.377122408e-03f, 2.234488493e-03f,
  2.275204519e-03f, 2.159502357e-03f, 2.016805578e-03f, 2.066870220e-03f, 1.753862831e-03f, 2.002101857e-03f, 1.782529056e-03f, 1.587216742e-03f,
  7.774734404e-04f, 3.030433727e-04f, 2.905356232e-04f, 1.721328474e-03f, 3.182183427e-04f, 1.869153697e-03f, 3.561814083e-04f, 1.631525694e-03f,
  8.346766117e-04f, 1.973508857e-03f, 5.472292542e-04f, 1.744447043e-03f, 1.891848660e-04f, 9.406395257e-04f, 5.133515224e-04f, 4.773182081e-05f,
  1.524806023e-03f, -8.782948134e-05f, 2.313304460e-03f, 8.791600121e-04f, 2.590976655e-03f, 2.053263364e-03f, 2.336291131e-03f, 1.616746769e-03f,
  1.856146264e-03f, 9.931974346e-04f, 1.778078964e-03f, 7.741885493e-04f, 1.289992477e-03f, 5.939136609e-04f, 1.104782452e-03f, 5.908531602e-04f,
  8.676784346e-04f, 9.954564302e-05f, 5.440892419e-04f, -2.410086163e-04f, -1.138801890e-04f, -5.770802964e-04f, -3.712458420e-04f, -1.327190239e-05f,
  -8.569030906e-04f, 9.391847016e-06f, -9.808412287e-04f, -3.134309372e-05f, -5.513478536e-04f, -6.102418411e-04f, -6.097549922e-04f, -6.615057937e-04f,
  -7.425686810e-03f, -4.246686120e-03f, -6.452829577e-03f, -3.095183987e-03f, -5.819728598e-03f, -1.163001754e-03f, -6.889712997e-03f, -1.701534493e-03f,
  -5.522512365e-03f, -1.517635770e-03f, -3.219754202e-03f, -2.135356423e-03f, -3.310886910e-03f, -2.153246198e-03f, -3.932174295e-03f, -2.373850904e-03f,
  -3.399267094e-03f, -5.362159573e-04f, -1.942520146e-03f, -9.927267674e-04f, -3.860462923e-03f, -3.084965050e-03f, -6.094831508e-03f, -4.169671331e-03f,
  -5.804814864e-03f, -3.750883741e-03f, -5.810418166e-03f, -3.920494113e-03f, -5.943160970e-03f, -3.820017446e-03f, -4.908884875e-03f, -1.735425321e-03f,
  -4.200011957e-03f, -1.804276486e-03f, -4.012304358e-03f, -1.199336490e-03f, -3.337098053e-03f, -5.572344526e-04f, -4.936093464e-03f, -2.077932702e-03f,
  -4.466920160e-03f, -2.526567318e-03f, -4.657082725e-03f, -3.128651995e-03f, -3.984654788e-03f, -3.218858503e-03f, -4.261386115e-03f, -3.002021462e-03f,
  -3.643830074e-03f, 9.268086404e-03f, 9.621972218e-03f, 3.658634378e-03f, 6.757270545e-03f, -2.490937477e-03f, 7.066128775e-03f, 4.193012603e-03f,
  7.955438457e-03f, 2.191182692e-03f, 3.090806305e-03f, 2.635827055e-03f, 4.375492223e-03f, 1.483598171e-04f, 5.380108021e-03f, 2.858680440e-03f,
  1.021848898e-02f, 5.489013158e-03f, 7.663052529e-03f, 8.224014193e-03f, 6.145926658e-03f, 9.979072027e-03f, 6.680438761e-03f, 1.005099807e-02f,
  1.144251879e-02f, 6.952743512e-03f, 1.085508242e-02f, 3.700162284e-03f, 7.278141100e-03f, 6.415730342e-03f, 7.244311739e-03f, 6.144557614e-03f,
  9.994349442e-03f, -1.122303074e-03f, 3.950382117e-03f, 2.766964826e-05f, -1.971433638e-03f, -6.104183267e-04f, -3.864705330e-03f, -1.285615377e-03f,
  -4.590673838e-03f, 1.913700951e-03f, 5.502640852e-04f, 9.839127772e-03f, 4.659502301e-03f, 1.011645608e-02f, 8.824721910e-03f, 7.908262312e-03f,
  6.654051598e-03f, 4.181349184e-03f, -8.988161571e-03f, -3.565438383e-04f, -1.055375952e-02f, 7.200940978e-03f, -6.232506596e-03f, 1.394877560e-03f,
  -7.110587787e-03f, 2.741993871e-03f, -1.026929636e-02f, -5.874002352e-03f, -9.586337022e-03f, -3.731449833e-03f, -9.043991566e-03f, -9.181709029e-03f,
  -6.037103478e-03f, -9.559887461e-03f, -8.654534467e-04f, -4.882040434e-03f, 7.330434863e-03f, -3.277615644e-03f, 6.061253604e-03f, 1.591412234e-03f,
  7.289204746e-03f, -1.235946547e-03f, 7.602716796e-03f, -1.102905953e-03f, 8.825220168e-03f, 5.729157128e-04f, 6.085065193e-03f, -1.527041604e-05f,
  6.149602588e-03f, -1.861654688e-03f, 3.146616044e-03f, 7.453099359e-03f, 6.945969537e-03f, 4.964158405e-03f, 3.668106394e-03f, 5.258619320e-03f,
  5.579223856e-03f, 7.124151569e-03f, 1.385355601e-03f, 6.163037382e-03f, -2.523580333e-03f, 6.630985066e-03f, -8.249172242e-04f, -3.013972891e-03f,
  -1.993984915e-03f, -8.635482751e-03f, -6.429893896e-03f, 9.941805154e-03f, -6.989183603e-04f, -3.188017523e-03f, -2.475141734e-02f, -1.491982024e-02f,
  -3.470450640e-02f, -2.902203426e-02f, -4.368882626e-02f, -3.719222546e-02f, -2.641233057e-02f, -2.825831994e-02f, -2.346764319e-02f, -2.002296038e-02f,
  -2.687403932e-02f, -2.028644271e-02f, -1.445421483e-02f, -3.321263567e-02f, -2.076216601e-02f, -2.316571958e-02f, -3.119792417e-02f, -2.802591212e-02f,
  -5.347307399e-02f, -4.050647840e-02f, -5.715382099e-02f, -3.274827451e-02f, -4.864297062e-02f, -4.233806953e-02f, -4.063177481e-02f, -5.381419510e-02f,
  -3.607805073e-02f, -3.413233534e-02f, -2.705469355e-02f, -7.459192537e-03f, -1.579594426e-02f, -2.124581486e-02f, -2.598392777e-03f, -1.433081832e-02f,
  1.362044085e-02f, -1.025791001e-02f, -9.382445365e-03f, -1.177747454e-02f, -1.097508613e-02f, -1.194742136e-02f, -1.912491396e-02f, -2.409072826e-03f,
  -1.699431427e-02f, 8.864286356e-04f, 2.488579368e-03f, 1.152225956e-02f, 1.731577795e-03f, 7.666479796e-03f, 5.452706944e-03f, 1.519228611e-02f,
  -1.285552164e-03f, -8.513325010e-04f, -2.191124484e-02f, -9.687521495e-03f, -1.636687480e-02f, 4.259746638e-04f, -3.489916772e-02f, -3.549433080e-03f,
  -1.996026933e-02f, -1.151190372e-03f, -6.966304034e-03f, -1.879438199e-02f, 1.151712984e-02f, -3.082330152e-02f, -1.973597705e-02f, -1.917189173e-02f,
  -1.085698325e-02f, -1.397426613e-02f, -1.188706490e-03f, -2.197607420e-02f, -2.128134295e-02f, -2.303252555e-02f, -2.708614990e-02f, -3.794838861e-02f,
  -3.790713474e-02f, -3.773059323e-02f, -4.365295544e-02f, -3.637550026e-02f, -5.022117496e-02f, -1.995732635e-02f, -2.864665724e-02f, -2.130057476e-02f,
  -3.017248027e-02f, -3.361903131e-02f, -3.614599630e-02f, -2.224288322e-02f, -3.144760057e-02f, -1.233000122e-02f, -3.336068243e-02f, -2.103634924e-02f,
  -2.637559734e-02f, -1.615037769e-02f, -1.485557389e-02f, -1.298355684e-02f, -5.723479670e-03f, -3.477071226e-02f, -1.134981774e-02f, -2.611005865e-02f,
  -6.430506706e-03f, -1.800030284e-02f, 1.985614933e-02f, -1.685166173e-02f, 9.973025881e-03f, -1.786055788e-02f, 6.657354068e-03f, -2.235157602e-02f,
  4.707380198e-03f, -2.683540992e-02f, -8.431524038e-03f, -2.635666542e-02f, -1.207265537e-02f, -5.189789459e-03f, -2.234297059e-02f, -3.968407400e-04f,
  -1.069362462e-02f, -3.411086276e-03f, -9.869285859e-03f, -2.259539813e-02f, -1.694456302e-02f, -1.574448682e-02f, -1.155909058e-02f, -6.364942528e-03f,
  -1.132851094e-02f, 7.216810482e-04f, -1.761250570e-02f, 1.279461291e-02f, -2.399288584e-03f, 5.908737425e-03f, -1.049813721e-02f, -3.444040194e-04f,
  -7.783573121e-03f, 1.586409286e-02f, -7.765603717e-03f, 1.752936654e-02f, -1.310325321e-02f, 2.792672953e-03f, -1.643784158e-02f, -2.144041937e-03f,
  -4.160294682e-02f, -6.490605418e-03f, -3.869773075e-02f, 6.162499543e-03f, -2.105204202e-02f, -1.677595451e-02f, 6.591924466e-03f, -3.875881433e-03f,
  -6.528793368e-03f, -1.291397028e-02f, -1.071454305e-02f, -3.431183472e-02f, -6.232706364e-03f, -3.487432376e-02f, -2.773956396e-02f, -1.872001402e-02f,
  -2.548934519e-02f, -1.997829601e-02f, -9.683862329e-03f, 9.039377794e-03f, -2.652237006e-02f, 1.659368747e-03f, -4.146848992e-02f, -3.550200164e-02f,
  -3.122080676e-02f, -4.329946265e-02f, -2.910226211e-02f, -2.192904055e-02f, -3.755844384e-02f, -1.677260920e-02f, -3.965168819e-02f, -1.102508139e-02f,
  -4.860884324e-02f, -2.356188139e-03f, -5.377478898e-02f, -3.218647465e-02f, -3.004125878e-02f, -4.673122987e-02f, -3.947920352e-02f, -3.769661486e-02f,
  -5.227806047e-02f, -3.776792064e-02f, -4.092010856e-02f, -3.127735108e-02f, -2.584866248e-02f, -6.187557243e-03f, -8.416472003e-03f, -2.270695940e-02f,
  1.572892070e-02f, -3.551200405e-02f, 2.245875774e-03f, -3.664059192e-02f, -1.273913495e-02f, -3.407604247e-02f, 6.106771529e-03f, -5.137693882e-02f,
  -5.488852412e-02f, -4.399100319e-02f, -4.501370713e-02f, -4.523982853e-02f, -4.677556455e-02f, -4.268290475e-02f, -5.717454106e-02f, -5.268338323e-02f,
  -6.961421669e-02f, -5.764450878e-02f, -6.219796091e-02f, -5.408007279e-02f, -4.823194817e-02f, -3.662484884e-02f, -4.367973283e-02f, -4.005479813e-02f,
  -4.078852758e-02f, -3.803477436e-02f, -4.075714573e-02f, -5.407380685e-02f, -5.300130323e-02f, -3.750839457e-02f, -4.362794384e-02f, -4.064483196e-02f,
  -5.108566210e-02f, -4.355006665e-02f, -6.925333291e-02f, -5.846995860e-02f, -6.959642470e-02f, -7.416216284e-02f, -6.595953554e-02f, -7.672349364e-02f,
  -4.782195017e-02f, -6.733666360e-02f, -3.425265104e-02f, -3.926775604e-02f, -3.930217028e-02f, -3.624405339e-02f, -4.075717553e-02f, -3.916559741e-02f,
  -4.159558937e-02f, -3.526313603e-02f, -4.394360632e-02f, -3.189066797e-02f, -4.438473657e-02f, -4.135033488e-02f, -3.901083395e-02f, -3.883197531e-02f,
  -3.311920539e-02f, -2.065684088e-02f, -2.726332843e-02f, -3.470916674e-02f, -7.242772728e-03f, -2.736316063e-02f, -2.504677698e-02f, -3.568890691e-02f,
  -1.836640760e-02f, -5.017216504e-02f, -6.298116595e-02f, -4.424111918e-02f, -9.076579660e-02f, -5.614501610e-02f, -7.685516030e-02f, -3.532873467e-02f,
  -8.485794067e-02f, -7.038359344e-02f, -1.037659124e-01f, -6.708375365e-02f, -9.199835360e-02f, -4.704029858e-02f, -8.648751676e-02f, -6.412144750e-02f,
  -7.925553620e-02f, -7.882826775e-02f, -3.480586410e-02f, -9.227082133e-02f, -2.531792782e-02f, -6.412389874e-02f, -5.038560927e-02f, -3.319689259e-02f,
  -3.895106167e-02f, -6.526567042e-02f, -3.137063980e-02f, -8.208991587e-02f, -6.278005242e-02f, -4.294407740e-02f, -8.605869114e-02f, -5.051222444e-02f,
  -1.127394587e-01f, -9.189529717e-02f, -8.016517013e-02f, -8.736872673e-02f, -4.096868634e-02f, -5.855104327e-02f, -4.159614816e-02f, -4.199617729e-02f,
  -1.996636018e-02f, -2.131156996e-02f, -1.176236197e-03f, -1.773189381e-02f, 1.294981129e-02f, -2.303803340e-02f, -1.640501432e-02f, -7.290586829e-02f,
  -3.105489723e-02f, -8.009783179e-02f, -5.786790326e-02f, -8.517803997e-02f, -1.992146112e-02f, -9.540168196e-02f, -2.197975107e-02f, -3.748893738e-02f,
  -4.003208503e-02f, -2.026898414e-02f, -6.923791021e-02f, -2.039819397e-02f, -5.583944917e-02f, -1.420274191e-02f, -2.561205626e-02f, -1.485947520e-02f,
  -1.826471463e-02f, -2.774280682e-02f, 8.974304365e-06f, -1.944116689e-02f, 2.860323526e-02f, -2.041246183e-02f, 2.691410482e-02f, -3.548259661e-02f,
  -3.017394058e-02f, -3.416675702e-02f, -9.672943503e-02f, -3.229561821e-02f, -5.066220462e-02f, -3.528552502e-02f, -3.563755006e-02f, -4.017124698e-02f,
  4.530908074e-03f, -1.693743467e-02f, 2.896850370e-02f, -2.504424378e-02f, -1.583459042e-02f, -1.581426710e-02f, -1.113494486e-02f, -3.263566270e-02f,
  3.993922379e-03f, 3.942967393e-03f, -1.333892792e-01f, -6.799425930e-02f, -1.375405192e-01f, -2.937720902e-02f, -1.011469141e-01f, -4.501618072e-02f,
  -1.179078072e-01f, -9.498573840e-02f, -1.220972687e-01f, -1.382953525e-01f, -1.083106771e-01f, -1.539254785e-01f, -1.269168407e-01f, -8.258577436e-02f,
  -1.261238456e-01f, -9.538041800e-02f, -1.299521774e-01f, -1.304137707e-01f, -1.261738390e-01f, -1.579493135e-01f, -6.884595007e-02f, -1.194400191e-01f,
  -7.025257498e-02f, -9.380754083e-02f, -1.357862204e-01f, -9.412264079e-02f, -7.670439780e-02f, -9.869217873e-02f, -9.920533746e-02f, -1.211112142e-01f,
  -9.065762907e-02f, -1.364658922e-01f, -8.393931389e-02f, -1.648872793e-01f, -9.195531160e-02f, -1.442966312e-01f, -1.005104929e-01f, -1.714866757e-01f,
  -5.574726686e-02f, -1.324245781e-01f, -8.491604030e-02f, -8.742006868e-02f, -8.935778588e-02f, -7.013154775e-02f, -5.259097368e-02f, -6.725331396e-02f,
  -8.174365759e-02f, -6.217901409e-02f, -8.570072800e-02f, 1.777902432e-02f, 1.545952726e-02f, 8.181562647e-03f, 8.327832446e-03f, -5.714041763e-04f,
  -2.470449544e-02f, 5.684860051e-02f, 8.040549234e-03f, 6.655713916e-02f, 5.116793141e-02f, -2.616517060e-02f, 2.203310840e-02f, -8.077639155e-03f,
  5.781390239e-03f, -4.081010446e-02f, -5.627775192e-02f, 1.491749752e-02f, -5.972462893e-02f, 7.055065595e-03f, 1.201464678e-03f, -3.398791701e-02f,
  2.475011908e-02f, 1.515177544e-02f, 1.764780656e-02f, 8.288347162e-04f, 2.522054501e-02f, 1.746942475e-02f, 2.492635883e-02f, 5.122582894e-03f,
  -2.806743421e-02f, -3.504840424e-03f, 3.933011740e-02f, 1.608569734e-02f, 7.829194888e-03f, 1.892390102e-02f, 5.264213681e-02f, 1.434581261e-02f,
  -1.659679972e-02f, 5.693976767e-03f, 1.977542788e-02f, 3.317092359e-02f, -2.657905407e-02f, -2.084076218e-02f, -6.920320541e-02f, -1.464974415e-02f,
  -1.017670427e-02f, -3.336995607e-03f, -1.149949385e-03f, -1.058236137e-02f, -5.468074977e-02f, -4.939489812e-02f, -1.821905375e-02f, 4.145988077e-02f,
  4.954330507e-04f, 1.462877262e-02f, 4.576587118e-03f, -2.601412311e-02f, 5.261415988e-02f, 3.741787374e-02f, -3.246074915e-02f, -2.509107627e-02f,
  -3.984238580e-02f, -9.124328196e-02f, 3.465704247e-02f, -1.046844795e-01f, 1.087571084e-01f, -1.502296049e-02f, 8.819951117e-02f, 1.070883945e-01f,
  3.023197502e-02f, 1.317133754e-01f, -2.759267204e-02f, -4.797389731e-02f, -5.404354632e-02f, -6.865175068e-02f, -7.824216969e-03f, -2.312884666e-02f,
  -5.173799768e-02f, -1.935370080e-02f, -1.989299618e-02f, -6.156815216e-04f, -2.490128949e-02f, -5.690629408e-02f, -3.475951031e-02f, -3.777559102e-02f,
  -7.124526054e-02f, -3.721895069e-02f, -2.785953134e-02f, 6.078133732e-02f, -5.347239971e-02f, 2.335884608e-03f, -1.466296427e-02f, -4.605613183e-03f,
  3.069454804e-02f, -2.301066928e-02f, -3.796767443e-03f, -3.503247397e-03f, -4.394032527e-03f, 9.741322696e-02f, 1.969841123e-02f, 2.605959214e-02f,
  1.234634221e-02f, 5.989439040e-02f, -5.086335540e-02f, -2.445695549e-02f, 6.808238477e-02f, 8.322857320e-03f, 1.014470682e-01f, -2.882791683e-02f,
  -2.690184396e-03f, 9.964302881e-04f, -2.906036377e-02f, -1.191322040e-02f, 2.354051359e-02f, 8.493637294e-02f, 6.913291663e-02f, -2.076580375e-02f,
  -9.001658857e-02f, -9.610582888e-02f, -1.009725183e-01f, -4.643064365e-02f, 1.260650530e-02f, 1.626247726e-02f, -1.039615949e-03f, -6.908458192e-03f,
  -2.473805798e-03f, 5.167352967e-03f, 4.293230921e-02f, 9.309960157e-02f, 3.441818431e-02f, -1.736153616e-03f, 8.090907708e-03f, 2.634012327e-02f,
  3.058076277e-02f, 2.991268225e-02f, -7.114010304e-02f, -6.936278194e-02f, 1.895660907e-02f, -2.203059383e-02f, -7.673083339e-03f, -2.517403103e-02f,
  3.144997358e-02f, -5.420016591e-03f, -6.883998401e-03f, 6.445014849e-03f, 1.650061458e-02f, -1.899540424e-02f, 4.440499935e-03f, -6.859135628e-02f,
  -3.444572911e-02f, -7.482095063e-02f, 2.927480033e-03f, 1.181419417e-01f, 1.654682122e-02f, -3.625500575e-02f, -8.849460632e-02f, 8.008907549e-03f,
  2.349269763e-02f, -4.479638487e-02f, 1.845194027e-02f, 4.987175763e-02f, 8.526811749e-02f, 4.721845314e-02f, -4.624082893e-02f, 4.807906970e-02f,
  -2.634948120e-02f, 3.009445034e-02f, 8.719282225e-03f, 1.686826348e-03f, 8.644717187e-02f, -5.565717071e-02f, -1.176025905e-02f, -5.852683261e-02f,
  -6.543866545e-02f, 4.859847575e-02f, 6.063990877e-04f, -5.065510981e-03f, 4.936741292e-02f, -1.313692331e-01f, -1.085649431e-01f, 2.100631595e-02f,
  -1.049869061e-01f, -1.175955962e-02f, -3.414008394e-02f, -1.214554161e-02f, -1.256474201e-02f, 5.694328249e-02f, 9.267035872e-02f, 1.440488547e-01f,
  7.345485687e-02f, 5.337951705e-03f, 6.620640308e-02f, -2.848404460e-02f, -2.386229113e-02f, -4.437124357e-02f, -3.774589673e-02f, 1.216043755e-01f,
  -1.287966594e-02f, 8.123047650e-02f, 5.116389319e-02f, -8.093179762e-02f, -1.720359735e-02f, 2.290869318e-02f, -5.249489099e-02f, -1.505789906e-01f,
  9.343110025e-03f, 3.822997957e-02f, 1.085849851e-02f, -9.330993146e-02f, 5.270285159e-02f, -9.776007384e-03f, 9.079942852e-02f, 8.345395327e-02f,
  1.433934569e-01f, 2.753567882e-02f, -2.151880786e-02f, 8.500863612e-02f, 2.089214325e-02f, -4.949521646e-02f, 6.870273966e-03f, 2.131220885e-03f,
  2.179741859e-02f, 2.941421792e-02f, -4.984141514e-02f, -1.034871303e-02f, 2.747185528e-03f, -3.272213414e-02f, -5.445908010e-02f, 1.637170613e-01f,
  6.808355451e-02f, -4.215130955e-02f, -5.831155553e-02f, 4.821494222e-03f, 3.283518180e-02f, 3.341412544e-02f, -7.297930866e-02f, -1.616071910e-02f,
  -6.850565225e-02f, 7.240461186e-03f, 3.041032515e-02f, -1.548664570e-01f, -1.509816200e-02f, -6.285864860e-02f, -5.090845004e-02f, 3.109941445e-02f,
  -5.706196651e-02f, -6.112658232e-02f, -1.053722501e-01f, -4.936290160e-02f, -4.176041111e-02f, -7.002198696e-02f, -4.665555805e-02f, -4.292423651e-02f,
  8.957915753e-02f, 4.614569247e-02f, 1.514222939e-02f, 4.202288762e-02f, -1.915634423e-02f, -1.675604959e-03f, 6.310354918e-02f, -6.468810141e-02f,
  -3.169292584e-02f, 5.087234452e-02f, -5.355748534e-02f, -2.422492020e-02f, -1.116568968e-01f, -6.316073239e-02f, -2.092386223e-02f, 3.695881367e-02f,
  4.792799801e-02f, -4.658982903e-02f, 3.762098402e-02f, -6.045984477e-02f, 2.476487681e-02f, 1.033977419e-01f, 4.505958408e-02f, 1.349780411e-01f,
  5.536181852e-02f, -7.018285990e-02f, 6.808329374e-02f, 3.451507166e-02f, 8.234459907e-02f, 1.962945797e-02f, -1.155637726e-01f, -6.777997129e-03f,
  -8.092770353e-03f, -1.042246120e-03f, -4.089708254e-02f, 4.846144840e-02f, 1.026659925e-02f, 1.482552476e-02f, 8.163668215e-02f, 5.078728497e-02f,
  4.775429517e-02f, 2.570845187e-02f, 1.352895889e-02f, 2.725017630e-02f, -2.543659694e-02f, -6.663754582e-02f, -9.034791589e-02f, -3.811994568e-02f,
  2.334223874e-02f, 4.491524398e-02f, -7.956843078e-02f, -1.754171029e-02f, 6.657674909e-02f, 1.046274323e-02f, 5.717230216e-02f, -7.759739459e-02f,
  8.093088865e-02f, -5.402327329e-02f, -1.375186741e-01f, 5.129856989e-02f, 3.796867281e-02f, 2.360915951e-02f, 4.267900810e-02f, -3.563151509e-02f,
  -8.798673004e-02f, -4.476377275e-03f, -2.525326051e-02f, -6.537079811e-02f, -4.810695723e-02f, 2.264858456e-03f, -2.535522170e-02f, 5.040981341e-03f,
  -2.739251591e-02f, 7.203924656e-02f, 9.636552632e-02f, -4.868927412e-03f, -7.697888650e-03f, -5.715939775e-02f, -2.740469016e-02f, 5.239743367e-02f,
  2.227947675e-02f, 4.372107238e-02f, -7.847619243e-03f, -3.873419762e-02f, 3.095287643e-02f, 1.910487749e-02f, 4.164006934e-02f, 9.971410036e-03f,
  3.355218098e-02f, 3.083184175e-02f, 1.316809207e-01f, 4.584182054e-02f, 2.455744520e-02f, 4.265160114e-02f, 1.392829269e-01f, 6.773710717e-03f,
  -5.730365217e-02f, -7.515314501e-03f, -1.899411157e-02f, -2.441960573e-02f, -1.137430221e-02f, -2.579068206e-02f, -7.538829744e-02f, 1.943276846e-03f,
  -2.106299065e-02f, 1.203526780e-01f, -5.964053795e-02f, 2.797908150e-02f, 6.818458438e-02f, -1.762513258e-02f, 5.108024459e-03f, -1.130396873e-01f,
  -4.305969924e-02f, 3.914389759e-02f, 3.287116811e-02f, 5.466326699e-02f, 1.497455523e-03f, 4.051708058e-02f, -3.682579845e-02f, 6.956037134e-02f,
  8.889078349e-02f, -3.958944231e-02f, -4.746568203e-02f, -3.635707498e-02f, 1.631228440e-02f, 9.421580285e-02f, 2.798125206e-04f, 1.032159291e-02f,
  -3.092824109e-02f, -8.647143096e-02f, -1.918446086e-02f, -2.874774300e-02f, -1.511078626e-01f, -2.547178976e-02f, 1.785081252e-02f, 6.619857252e-02f,
  8.852876723e-02f, -1.179542169e-01f, 1.978195272e-02f, -4.574645311e-02f, -5.386221409e-02f, -3.726876155e-02f, -1.665968820e-02f, -9.050509334e-02f,
  1.942792907e-02f, -1.333848224e-03f, -9.641943127e-02f, 7.311175019e-02f, 1.096729003e-02f, -5.809570663e-03f, 7.049015909e-02f, 1.278211772e-01f,
  -7.553751022e-02f, -3.322675824e-02f, -6.626343727e-02f, -1.638522446e-01f, 4.207359999e-02f, -3.833283857e-02f, 1.085832156e-02f, 9.795690328e-02f,
  -3.722076863e-02f, 2.166440710e-02f, -7.839980535e-03f, 2.638741955e-02f, -4.216903821e-02f, 3.864965588e-02f, -2.468426339e-02f, -1.312699020e-01f,
  1.076075733e-01f, -6.402786821e-02f, -4.191666096e-02f, 3.728236258e-02f, -5.804474279e-02f, 3.225648543e-03f, 5.044998229e-02f, 2.805135772e-02f,
  6.665793061e-02f, 1.125947535e-01f, 7.920183241e-02f, -7.394488901e-02f, 1.074042022e-01f, -5.960285291e-02f, -6.049461663e-02f, -3.514958778e-03f,
  -6.365657598e-02f, 9.354596958e-03f, 7.746350765e-02f, 1.751908660e-01f, -3.016963229e-02f, 2.963971160e-02f, 4.294491187e-02f, -1.881867088e-02f,
  -2.027155273e-02f, 1.631534472e-02f, -7.400449365e-02f, -7.285895199e-02f, -9.126151353e-02f, -3.689429536e-02f, 5.400493741e-02f, 2.692929655e-02f,
  1.009338126e-01f, 1.276726574e-01f, 3.387479484e-02f, -2.519866452e-02f, 2.019760013e-02f, 1.290686708e-02f, 4.528958234e-04f, -1.159243733e-01f,
  -8.749800175e-02f, 1.189600602e-01f, 6.791052967e-02f, -2.037402056e-02f, -5.694393814e-02f, -2.222911268e-02f, -1.273263693e-01f, -1.102565154e-01f,
  -5.881552352e-04f, -1.095095724e-01f, 2.453496866e-02f, -1.817130111e-02f, 1.326654702e-01f, 6.819042563e-02f, 9.951899946e-02f, 2.029828131e-01f,
  -3.687512130e-02f, 2.081027813e-02f, -1.030823030e-02f, -2.115734294e-02f, -6.326899864e-03f, 2.947844751e-02f, -1.755657047e-02f, 2.519156970e-02f,
  1.181263593e-03f, -5.206967518e-02f, 4.219587892e-02f, 2.500135824e-02f, 7.998315617e-03f, 3.227180243e-02f, 1.358463895e-02f, -3.717707098e-02f,
  5.176329985e-02f, 1.846225187e-02f, -5.008836091e-02f, -2.331261337e-02f, 1.835287549e-02f, -4.002179205e-02f, -1.252962798e-01f, 1.582486555e-02f,
  -7.595275342e-02f, -3.334899992e-02f, 3.749874234e-02f, 5.780964345e-02f, -2.123997733e-02f, -9.888060391e-02f, -5.586061627e-02f, 9.866176173e-03f,
  3.632042557e-02f, 5.560763925e-02f, 1.433880907e-02f, -4.832630977e-02f, 2.328625694e-02f, -4.083654657e-02f, 1.238270476e-01f, -4.059772938e-02f,
  2.617884241e-02f, 8.138021827e-02f, -7.005714625e-02f, 8.594509214e-02f, 3.192163259e-02f, -9.163425863e-02f, 2.053741366e-02f, -4.721792415e-02f,
  -8.712624013e-02f, 1.115169749e-01f, -7.265503705e-02f, -2.186846174e-02f, -7.258684188e-02f, -1.175117195e-01f, 9.373155236e-02f, 1.472983789e-02f,
  1.111245602e-01f, 7.885201275e-02f, -1.674100175e-03f, 4.563727975e-02f, 5.899934098e-02f, 6.010692567e-02f, 4.052419588e-02f, 6.496374961e-03f,
  2.899710461e-02f, -1.283197664e-02f, -6.161494181e-02f, -1.101974770e-01f, -3.238624334e-02f, -1.373083424e-02f, -5.982417613e-02f, -9.119947441e-03f,
  8.425784111e-02f, -2.655035816e-02f, -3.747748910e-03f, 1.287786812e-01f, -4.046519473e-02f, 3.791183978e-02f, -6.447078288e-02f, 1.566764877e-05f,
  2.668102644e-02f, 1.400137693e-02f, 6.694224477e-02f, -1.261057332e-03f, 1.681930386e-02f, -2.907418087e-02f, 4.047449306e-02f, 1.792773232e-02f,
  6.279664487e-02f, -2.091447590e-03f, -4.058671184e-03f, -3.187895566e-02f, -1.258448213e-01f, 1.713846345e-03f, -1.474893093e-01f, 4.654563032e-03f,
  1.008242369e-01f, -7.307681721e-03f, 3.290551528e-02f, -9.759332053e-03f, 8.910375088e-02f, 5.169231817e-02f, 5.476453900e-02f, -1.807801425e-02f,
  -1.013341993e-01f, 2.042404190e-02f, 1.005810779e-02f, -3.556698561e-02f, 3.114825487e-02f, 7.694117725e-02f, -1.938759087e-04f, 1.270794272e-01f,
  -1.639020257e-02f, 7.464892417e-02f, 6.460704654e-02f, -3.329087421e-02f, -3.596429527e-02f, -1.036174297e-01f, -6.594627164e-03f, -8.675057441e-02f,
  2.865797281e-02f, -3.522769734e-02f, -3.893582895e-02f, 1.514172405e-01f, 3.199486993e-03f, -2.798730694e-02f, -1.308479719e-02f, -7.431285083e-02f,
  8.759107441e-03f, -5.908222497e-02f, 1.203193292e-01f, 7.991368324e-02f, -1.648580772e-03f, 5.782099068e-02f, -1.414665431e-01f, -3.662439296e-03f,
  1.219217330e-01f, -9.969681501e-03f, -4.323989525e-02f, -4.709627479e-02f, 1.675590873e-02f, -3.518977389e-02f, 1.372312661e-02f, -5.376591533e-02f,
  -1.870811731e-02f, 4.283135012e-02f, -1.799765229e-02f, -6.422673166e-02f, 9.593037516e-02f, 8.254389465e-02f, -6.360784918e-02f, 9.588054568e-02f,
  -7.563394960e-03f, 3.895276040e-02f, 7.850787044e-02f, 6.563099567e-03f, -5.923752487e-02f, 1.238382049e-02f, -3.245138330e-03f, -4.645717517e-02f,
  2.699892409e-02f, -4.158248776e-04f, -7.054993883e-03f, -1.143770292e-02f, -1.862072572e-02f, 1.497245580e-02f, 2.334787138e-02f, 7.993825711e-03f,
  2.894219942e-02f, -6.320458651e-02f, -1.856685616e-02f, 1.187697053e-02f, -1.125738863e-02f, -2.228800766e-02f, -4.224449396e-02f, 3.822160885e-02f,
  -5.925383419e-03f, -5.420485511e-03f, 4.009651020e-02f, -2.789900079e-02f, 1.623803563e-02f, 3.212435916e-02f, -5.030593835e-03f, -9.496757761e-03f,
  5.481570028e-03f, 1.126381475e-02f, 8.386994596e-04f, -8.238948882e-03f, -3.598165512e-02f, -5.641344003e-03f, 4.527056962e-02f, 1.314727310e-02f,
  -2.264168486e-02f, 1.474671531e-03f, 3.290395066e-02f, -2.726598643e-03f, -4.519037902e-02f, -5.720062181e-03f, 2.526507899e-02f, 1.741949096e-02f,
  -3.106395341e-02f, -3.680511564e-02f, -2.925094217e-02f, -5.134009756e-03f, -3.311423352e-03f, -1.908877399e-03f, 6.619109772e-03f, -2.060470637e-03f,
  -1.469291281e-02f, -5.824685097e-02f, 1.486306265e-02f, 8.004201949e-02f, 1.941659674e-02f, -5.017002299e-02f, 1.488191076e-03f, -2.764893323e-02f,
  3.275353462e-02f, 4.253432155e-02f, -5.722210929e-02f, -4.254107922e-02f, -6.126096006e-03f, -4.266071692e-02f, 4.980861023e-02f, -7.152711507e-03f,
  5.081429705e-02f, 5.922468007e-02f, -1.685542800e-02f, 8.191672713e-02f, -4.023457319e-02f, 1.560033113e-02f, -3.872126713e-02f, -1.202433407e-01f,
  -1.873189956e-02f, -1.450093929e-02f, 3.018804267e-02f, 2.892971598e-02f, -2.952382527e-02f, 2.985314699e-03f, 2.159541473e-02f, 1.307790168e-02f,
  -3.441108158e-03f, -3.812545165e-02f, -6.620984990e-03f, 1.166078262e-02f, -2.398589067e-02f, 6.042643799e-04f, 2.882618830e-02f, 6.723646820e-02f,
  -1.622980274e-02f, -3.916556016e-02f, 2.683240734e-02f, -4.714802373e-03f, 3.561201692e-02f, -2.605641074e-02f, -2.073724568e-02f, 1.440643799e-02f,
  1.135528088e-03f, 3.300784621e-03f, -1.392405331e-01f, -4.171823710e-02f, -7.207526825e-03f, 1.557333022e-02f, -3.880440071e-02f, -6.476119161e-02f,
  8.069454879e-02f, 2.225531451e-02f, 2.329973131e-02f, -2.514167689e-02f, -7.042925060e-02f, 2.017864026e-02f, -1.779878885e-02f, -8.780325763e-03f,
  3.569046035e-02f, 6.487281621e-02f, 3.117245436e-02f, -7.168919593e-02f, -1.073025167e-01f, -5.131639540e-02f, -7.307427935e-03f, 3.343709558e-02f,
  7.626155764e-02f, 4.265100509e-02f, -9.267237037e-03f, -1.564701647e-02f, -8.920951514e-04f, 8.092201315e-03f, 3.051284142e-02f, 5.961252749e-02f,
  -6.482705474e-03f, -6.428472698e-02f, -1.738371886e-02f, 1.907139644e-02f, 1.490302756e-02f, 2.028038260e-03f, -6.862794608e-02f, -6.718418747e-02f,
  6.051738560e-02f, 3.321091458e-02f, -1.795129292e-02f, -2.671278547e-03f, 2.663445659e-02f, 1.196709089e-02f, -2.351851575e-02f, 9.726600721e-03f,
  1.986140013e-02f, -1.849055476e-02f, -8.384614438e-02f, -1.830873489e-01f, -3.200413659e-02f, -4.132706672e-03f, 3.043799475e-02f, 1.334355474e-01f,
  8.010894060e-03f, -1.048839316e-01f, -7.137693465e-02f, 3.005165793e-02f, 7.564619929e-02f, -3.563026711e-02f, -3.177675419e-03f, 6.391102821e-02f,
  4.498775676e-02f, -1.468623057e-03f, -8.838665485e-02f, 1.387274824e-03f, 1.343478076e-02f, -1.193443872e-02f, 2.346229181e-02f, -1.965531707e-02f,
  5.165516958e-02f, -3.890715912e-02f, -6.668743491e-02f, -1.564530423e-03f, -3.623267263e-02f, 7.251331955e-02f, 4.487032071e-02f, -3.626831248e-02f,
  3.321605921e-02f, -8.401618898e-02f, -1.068073139e-01f, 1.028317288e-01f, 2.062042709e-03f, -2.218074352e-02f, 4.751635343e-02f, -4.704164166e-04f,
  1.488260832e-02f, 4.647875950e-02f, 7.186391205e-02f, 5.786084384e-02f, -1.198655274e-02f, -9.326326102e-02f, -2.825942065e-04f, -2.650111169e-02f,
  -6.134486943e-02f, -1.471303310e-02f, -4.377326928e-03f, 3.664483875e-02f, -2.859149575e-01f, -1.491525583e-02f, 5.028202012e-02f, -1.261520237e-01f,
  -5.636604130e-02f, 7.834400237e-02f, -2.426265553e-02f, -1.182025895e-01f, 4.243018106e-02f, 1.317669600e-01f, 9.517542785e-04f, -9.147571027e-02f,
  2.866762690e-02f, 5.701237544e-02f, 2.676834539e-02f, 6.386774033e-02f, 3.606776893e-02f, -3.852223977e-02f, -1.140983775e-01f, 3.971991315e-02f,
  2.918635122e-02f, -9.191370010e-02f, -9.575724602e-03f, 3.573792800e-02f, 1.044719853e-02f, 1.875093020e-02f, -4.917280003e-02f, -2.737078071e-02f,
